tree
version=v3
num_class=1
num_tree_per_iteration=1
label_index=0
max_feature_idx=2
objective=regression
feature_names=Column_0 Column_1 Column_2
feature_infos=[0:1] [0:1] [0:1]
tree_sizes=2805 2927 2933 2945 2938 2945 2957 2962 2972 2967 2961 2986 2973 2988 2988 2989 3000 3000 3003 3019 3017 3026 3020 3022 3037 3026 3026 3019 3030 3029 3028 3027 3045 3037 3029 3049 3049 3037 3034 3029 3027 3017 3027 3045 3037 3029 3046 3062 3037 3050 3004 3063 3047 3002 3022 3038 3026 3009 3009 3031 3014 3065 2978 3027 2990 3014 3031 3033 3019 3006 3034 3042 3027 3071 3033 3014 3057 3029 3024 3012 3036 3023 2991 3043 3072 2993 3000 3013 3033 3014 3065 3019 3044 3009 2989 3025 2990 3054 3029 3039

Tree=0
num_leaves=31
num_cat=0
split_feature=2 2 2 2 2 2 2 2 2 2 2 2 2 0 2 0 0 0 1 1 1 2 1 1 0 0 2 0 1 1
split_gain=469.426 93.143 75.8496 12.2457 11.4362 11.3161 10.7684 2.52951 1.86328 1.82972 1.75408 1.6953 1.45672 1.40214 1.3415 1.23251 1.07819 1.0188 1.0118 0.877337 0.858028 0.8519 0.741446 0.708916 0.62202 0.603702 0.476887 0.454954 0.405874 0.395541
threshold=0.38128381967544561 0.22064256668090823 0.55221664905548107 0.31029818952083593 0.12762237340211871 0.67155957221984874 0.4712692946195603 0.27084708213806158 0.7413906753063203 0.17802480608224872 0.62043145298957836 0.42924527823925024 0.081442143768072142 0.29116638004779821 0.34658266603946691 0.19128512591123584 0.22506267577409747 0.37930466234683996 0.31531204283237463 0.35205832123756414 0.43953686952590948 0.5117759406566621 0.30528433620929724 0.48070326447486883 0.52295815944671642 0.55610898137092601 0.8109579086303712 0.11317456141114236 0.26108326017856603 0.3674957156181336
decision_type=2 2 2 2 2 2 2 2 2 2 2 2 2 2 2 2 2 2 2 2 2 2 2 2 2 2 2 2 2 2
left_child=1 4 6 7 12 10 11 13 -7 15 25 17 -1 -3 22 -6 -11 -2 28 -16 -13 23 -5 -8 -23 -4 -10 -14 -9 -24
right_child=2 3 5 14 9 8 21 18 26 16 -12 20 27 -15 19 -17 -18 -19 -20 -21 -22 24 29 -25 -26 -27 -28 -29 -30 -31
leaf_value=0.3120086745084753 0.34876254136683676 0.33226188907064241 0.36642780511040512 0.3414331802084366 0.32386211883768784 0.37546163786731734 0.35767924887360747 0.33824356277063344 0.38209161679126757 0.32806146290474003 0.36984575301719841 0.3533091183123605 0.31935864348698306 0.32726950119719644 0.34486706154307112 0.31903365458240585 0.32348910973064604 0.34431775798916497 0.33129144961962537 0.34038545031397355 0.34849503746330102 0.36108195552500272 0.33810560928567107 0.35277646819042274 0.35634804632476907 0.36221756272372208 0.39017767415838611 0.31585295954887282 0.33518019957548734 0.33398480148658771
leaf_weight=838 865 1942 582 646 1345 692 501 552 294 1192 794 628 592 792 696 871 909 1277 604 1173 902 534 1587 717 578 821 97 988 1998 273
leaf_count=838 865 1942 582 646 1345 692 501 552 294 1192 794 628 592 792 696 871 909 1277 604 1173 902 534 1587 717 578 821 97 988 1998 273
internal_value=0.339899 0.330023 0.357985 0.336019 0.320885 0.370214 0.351303 0.333042 0.37858 0.323969 0.36609 0.347929 0.315379 0.330816 0.340027 0.321964 0.326083 0.346113 0.334972 0.342054 0.350471 0.35662 0.338514 0.354793 0.358621 0.363964 0.384098 0.317166 0.335843 0.337501
internal_weight=0 16998 9282 10263 6735 3280 6002 5888 1083 4317 2197 3672 2418 2734 4375 2216 2101 2142 3154 1869 1530 2330 2506 1218 1112 1403 391 1580 2550 1860
internal_count=26280 16998 9282 10263 6735 3280 6002 5888 1083 4317 2197 3672 2418 2734 4375 2216 2101 2142 3154 1869 1530 2330 2506 1218 1112 1403 391 1580 2550 1860
is_linear=0
shrinkage=1


Tree=1
num_leaves=31
num_cat=0
split_feature=2 2 2 2 2 2 2 2 2 2 2 2 0 2 2 0 0 0 1 2 1 1 0 1 0 0 0 0 1 1
split_gain=380.484 78.9298 57.965 10.6683 9.85316 8.65896 8.25394 1.73461 1.5921 1.50469 1.47137 1.29536 1.26338 1.15168 1.09349 1.02186 1.00438 0.827371 0.804848 0.787011 0.684989 0.671823 0.660632 0.604339 0.55625 0.48598 0.472993 0.421471 0.385869 0.375223
threshold=0.38708932697772985 0.22921889275312426 0.55610898137092601 0.13560496270656588 0.31405858695507055 0.67838764190673839 0.4712692946195603 0.28041298687458044 0.18214803934097293 0.62043145298957836 0.084872674196958556 0.77506926655769359 0.30911070108413702 0.35205832123756414 0.43175220489501959 0.24142367392778399 0.15018472075462344 0.39573162794113165 0.3674957156181336 0.5079496204853059 0.32369045913219457 0.43953686952590948 0.3025794923305512 0.48070326447486883 0.51540440320968639 0.11601134762167932 0.55610898137092601 0.22921889275312426 0.17142762988805774 0.28041298687458044
decision_type=2 2 2 2 2 2 2 2 2 2 2 2 2 2 2 2 2 2 2 2 2 2 2 2 2 2 2 2 2 2
left_child=1 3 6 10 7 9 14 12 16 26 -1 -7 27 22 17 28 -5 -2 -15 23 29 -16 -6 -8 -21 -12 -4 -3 -10 -9
right_child=2 4 5 8 13 11 19 20 15 -11 25 -13 -14 18 21 -17 -18 -19 -20 24 -22 -23 -24 -25 -26 -27 -28 -29 -30 -31
leaf_value=-0.024812013252163239 0.0082598423263965642 -0.0046711121860005984 0.024193360896433813 -0.012630166886335604 0.0014402075063255177 0.033550457174787052 0.015926614888012409 -0.0012534186449309386 -0.0075459715515753855 0.027226449153725005 -0.017752004209934474 0.04265245923629174 -0.011069711315818929 0.0046481298986722095 0.012328222863112404 -0.014568395402509683 -0.017231433563036462 0.0041088861710800589 0.00048984194037022155 0.019173798186379598 -0.0074224242924134116 0.0078935412127504132 -0.0019835658221891341 0.011229510217624772 0.015028267093916357 -0.021175545734563768 0.020314907615982605 -0.007384582889424761 -0.011224256630587539 -0.0040277912195491065
leaf_weight=943 882 996 531 721 857 789 480 706 391 893 651 195 701 889 565 869 1387 1054 977 579 454 864 1646 638 734 1142 771 1346 1054 1575
leaf_count=943 882 996 531 721 857 789 480 706 391 893 651 195 701 889 565 869 1387 1054 977 579 454 864 1646 638 734 1142 771 1346 1054 1575
internal_value=0 -0.00866537 0.016708 -0.0167063 -0.00299304 0.0275594 0.0107562 -0.00570274 -0.0136696 0.024065 -0.0216143 0.0353542 -0.00734536 0.000590541 0.00754871 -0.0118586 -0.0156577 0.00599997 0.00247093 0.015196 -0.00387512 0.00964693 -0.000811303 0.0132462 0.0168563 -0.0199325 0.0218967 -0.0062306 -0.010229 -0.00316909
internal_weight=0 17305 8975 7158 10147 3179 5796 5778 4422 2195 2736 984 3043 4369 3365 2314 2108 1936 1866 2431 2735 1429 2503 1118 1313 1793 1302 2342 1445 2281
internal_count=26280 17305 8975 7158 10147 3179 5796 5778 4422 2195 2736 984 3043 4369 3365 2314 2108 1936 1866 2431 2735 1429 2503 1118 1313 1793 1302 2342 1445 2281
is_linear=0
shrinkage=0.1


Tree=2
num_leaves=31
num_cat=0
split_feature=2 2 2 2 2 2 2 2 2 2 2 2 1 2 1 0 0 2 0 0 0 1 1 2 2 0 1 1 1 2
split_gain=308.46 59.4454 51.9324 8.73901 8.51458 6.8804 6.25471 1.67027 1.37667 1.33572 1.28878 1.28032 1.02561 0.915122 0.907381 0.895624 0.866467 0.779389 0.757483 0.745867 0.678483 0.603881 0.564809 0.518238 0.517724 0.442214 0.441413 0.366625 0.350956 0.324548
threshold=0.37732550501823431 0.21463913470506671 0.54073756933212291 0.6559242606163026 0.29618023335933691 0.11891410499811174 0.45860272645950323 0.7413906753063203 0.25349649786949163 0.32982583343982702 0.16166380792856219 0.58883097767829906 0.22921889275312426 0.40443989634513861 0.30528433620929724 0.21853146702051165 0.16680960357189181 0.06475128605961801 0.41456656157970434 0.34123894572258001 0.49686634540557867 0.34123894572258001 0.38346087932586675 0.49073097109794622 0.49402955174446112 0.60341075062751781 0.55610898137092601 0.40232880413532263 0.2854928076267243 0.8109579086303712
decision_type=2 2 2 2 2 2 2 2 2 2 2 2 2 2 2 2 2 2 2 2 2 2 2 2 2 2 2 2 2 2
left_child=1 5 6 11 8 17 13 -5 12 21 16 26 -3 22 -10 -12 -7 -1 -15 -11 23 28 -2 -8 -22 -13 -4 -21 -6 -9
right_child=2 4 3 7 9 10 20 29 14 19 15 25 -14 18 -16 -17 -18 -19 -20 27 24 -23 -24 -25 -26 -27 -28 -29 -30 -31
leaf_value=-0.023747489004472475 0.006260561014302635 -0.0058237023568367728 0.019988715457150256 0.028129837647766109 0.00066576362993954225 -0.01341876338808856 0.012178721028738298 0.034314857555084489 -0.0042422115577531467 0.0026961155377330914 -0.010392004242945072 0.024569976505270041 -0.010415514503074999 0.0092334789622368092 -0.0086388369044208581 -0.014215902123360942 -0.017825067805275412 -0.01929312347988061 0.0054646638680974019 6.5022690977176059e-05 0.0079858623150522706 -0.0058368598309225675 0.0020937789680546201 0.016233450568774167 0.012373341568379841 0.02070584463331621 0.015980651619772732 -0.0041952590932415349 -0.0023223504793729185 0.040985510152639806
leaf_weight=523 566 849 498 891 511 956 650 294 2480 1237 1484 552 1139 990 579 1043 837 1578 1156 1222 419 404 765 612 751 639 613 242 1703 97
leaf_count=523 566 849 498 891 511 956 650 294 2480 1237 1484 552 1139 990 579 1043 837 1578 1156 1222 419 404 765 612 751 639 613 242 1703 97
internal_value=0 -0.00814708 0.0144069 0.023904 -0.0034636 -0.015708 0.00864664 0.0305209 -0.00640582 -0.000671846 -0.0134252 0.020219 -0.00845452 0.00592566 -0.00507439 -0.0119703 -0.0154757 -0.0204019 0.00720331 0.000888301 0.0125368 -0.00228145 0.00386568 0.014145 0.0108021 0.0224968 0.0177772 -0.000639204 -0.00163268 0.0359697
internal_weight=0 16787 9493 3584 10366 6421 5909 1282 5047 5319 4320 2302 1988 3477 3059 2527 1793 2101 2146 2701 2432 2618 1331 1262 1170 1191 1111 1464 2214 391
internal_count=26280 16787 9493 3584 10366 6421 5909 1282 5047 5319 4320 2302 1988 3477 3059 2527 1793 2101 2146 2701 2432 2618 1331 1262 1170 1191 1111 1464 2214 391
is_linear=0
shrinkage=0.1


Tree=3
num_leaves=31
num_cat=0
split_feature=2 2 2 2 2 2 2 2 2 0 2 2 2 0 2 0 0 2 2 1 1 1 0 1 1 0 0 1 1 0
split_gain=249.922 47.4752 42.8801 6.72391 6.17362 5.99898 5.61157 1.25646 1.15491 1.1142 1.11098 1.03744 0.811242 0.773027 0.754637 0.733687 0.640063 0.621792 0.617898 0.603085 0.576888 0.545291 0.508303 0.495138 0.381693 0.368618 0.359283 0.348303 0.307329 0.293384
threshold=0.37521441280841833 0.22064256668090823 0.54433304071426403 0.67155957221984874 0.12491753324866296 0.29241985082626348 0.45860272645950323 0.60341075062751781 0.33424594998359686 0.30911070108413702 0.17142762988805774 0.7413906753063203 0.40971764922142034 0.13560496270656588 0.070391874760389342 0.19128512591123584 0.44224172830581671 0.49073097109794622 0.24775695800781253 0.34658266603946691 0.29618023335933691 0.37521441280841833 0.51942870020866405 0.46163742244243627 0.21853146702051165 0.60977700352668773 0.5613207519054414 0.34875972568988806 0.24557989090681079 0.10684126988053323
decision_type=2 2 2 2 2 2 2 2 2 2 2 2 2 2 2 2 2 2 2 2 2 2 2 2 2 2 2 2 2 2
left_child=1 4 6 7 14 9 12 26 20 18 13 -5 21 -6 -1 -12 -14 23 24 -10 -7 -2 -19 -8 -3 -9 -4 -22 -20 -16
right_child=2 5 3 11 10 8 17 25 19 -11 15 -13 16 -15 29 -17 -18 22 28 -21 27 -23 -24 -25 -26 -27 -28 -29 -30 -31
leaf_value=-0.021027382645025211 0.0061354499355425023 -0.0047007989791584097 0.018368452357647936 0.025928766782142527 -0.010456672537906166 8.7326008771271572e-06 0.012322992719516854 0.023423425992849346 0.0028177042159501968 -0.0086336420999673855 -0.008064167247715151 0.032372752952453732 0.0081780436511524855 -0.014733185275489913 -0.015211950458708358 -0.011635230357280793 0.0044915264287058946 0.014432623927412703 -0.0021739951170614727 -0.00047318978101641446 -0.0023506535510304412 0.002301515530593492 0.010765059391553599 0.0077760956123730102 -0.0084932198711529638 0.019702531611223706 0.015051547584913236 -0.0056926778966158971 -0.004704111112764307 -0.017957163610422922
leaf_weight=627 567 468 638 692 607 975 386 459 959 1032 940 391 1135 1392 610 1483 805 799 683 1328 1902 1073 717 631 613 634 669 373 1616 1076
leaf_count=627 567 468 638 692 607 975 386 459 959 1032 940 391 1135 1392 610 1483 805 799 683 1328 1902 1073 717 631 613 634 669 373 1616 1076
internal_value=0 -0.0073958 0.0128586 0.0217145 -0.0138792 -0.00300683 0.00781281 0.018763 -0.000814884 -0.00575769 -0.0116895 0.0282553 0.00526427 -0.0134346 -0.0180654 -0.0102498 0.00664833 0.0114148 -0.00487959 0.00090677 -0.0020264 0.00362703 0.012698 0.00950186 -0.00685136 0.0212651 0.0166707 -0.0028986 -0.00395245 -0.0169639
internal_weight=0 16684 9596 3483 6735 9949 6113 2400 5537 4412 4422 1083 3580 1999 2313 2423 1940 2533 3380 2287 3250 1640 1516 1017 1081 1093 1307 2275 2299 1686
internal_count=26280 16684 9596 3483 6735 9949 6113 2400 5537 4412 4422 1083 3580 1999 2313 2423 1940 2533 3380 2287 3250 1640 1516 1017 1081 1093 1307 2275 2299 1686
is_linear=0
shrinkage=0.1


Tree=4
num_leaves=31
num_cat=0
split_feature=2 2 2 2 2 2 2 2 2 0 2 2 0 0 2 2 0 1 1 2 2 0 1 2 2 0 2 0 1 2
split_gain=202.665 45.4085 28.0834 6.58931 5.64211 4.26838 4.02119 1.23358 0.920881 0.871091 0.786503 0.745233 0.695539 0.669339 0.66514 0.639463 0.569999 0.563208 0.54478 0.530702 0.46302 0.46232 0.456044 0.373171 0.364423 0.339259 0.31222 0.311452 0.303268 0.302341
threshold=0.39797466993331915 0.23782820999622348 0.56969916820526134 0.14780973643064502 0.32058978080749517 0.48070326447486883 0.69504550099372875 0.10040902718901636 0.28305184841156011 0.21239609271287921 0.63118484616279613 0.35806174576282507 0.3039648979902268 0.41456656157970434 0.19550732523202899 0.19550732523202899 0.13797994703054431 0.3674957156181336 0.32982583343982702 0.77506926655769359 0.44224172830581671 0.5117759406566621 0.33127722144126898 0.53371155261993419 0.44224172830581671 0.59852883219718944 0.51942870020866405 0.64916214346885692 0.42713418602943426 0.042419843375682838
decision_type=2 2 2 2 2 2 2 2 2 2 2 2 2 2 2 2 2 2 2 2 2 2 2 2 2 2 2 2 2 2
left_child=1 3 5 7 8 13 10 29 12 14 25 18 -3 24 -5 -11 -9 -13 -6 -8 -15 26 -10 -23 -2 -4 -7 -12 -19 -1
right_child=2 4 6 9 11 21 19 16 22 15 27 17 -14 20 -16 -17 -18 28 -20 -21 -22 23 -24 -25 -26 -27 -28 -29 -30 -31
leaf_value=-0.020980032242479782 0.0067288707343274821 -0.0040974587256966868 0.018383127145879852 -0.0093746479711651117 0.0016503921332964276 0.011757076707710869 0.025370382712980616 -0.011440180882471063 -0.0020256299822344584 -0.013021736400104122 0.022551687834682047 0.0044203395453945808 -0.0076660811296173949 0.0033047104681578053 -0.005865211976017479 -0.0094087516886684087 -0.015056741248263833 0.0016964821104500935 -0.0014919338588422247 0.031386629801530105 0.006528644133235873 0.0089056024466376872 -0.0055119739071153463 0.012332892096673561 0.01021410357461057 0.015011397331000221 0.015085876582279093 0.018815931056936585 -0.0027346777602179923 -0.016880716346085643
leaf_weight=210 943 2093 635 1393 926 639 591 744 2617 819 455 826 739 897 882 1219 1052 1053 1365 195 885 701 438 581 440 563 504 438 181 1256
leaf_count=210 943 2093 635 1393 926 639 591 744 2617 819 455 826 739 897 882 1219 1052 1053 1365 195 885 701 438 581 440 563 504 438 181 1256
internal_value=0 -0.00605442 0.0127374 -0.0119241 -0.00171148 0.00860572 0.0207652 -0.0153155 -0.00372966 -0.00935916 0.018473 0.00101917 -0.00502868 0.00618695 -0.00801407 -0.0108607 -0.0135586 0.00239933 -0.000221836 0.026863 0.00490582 0.0117626 -0.00252547 0.0104588 0.00783769 0.0167986 0.0132249 0.0207194 0.00104653 -0.0174679
internal_weight=0 17813 8467 7575 10238 5590 2877 3262 5887 4313 2091 4351 2832 3165 2275 2038 1796 2060 2291 786 1782 2425 3055 1282 1383 1198 1143 893 1234 1466
internal_count=26280 17813 8467 7575 10238 5590 2877 3262 5887 4313 2091 4351 2832 3165 2275 2038 1796 2060 2291 786 1782 2425 3055 1282 1383 1198 1143 893 1234 1466
is_linear=0
shrinkage=0.1


Tree=5
num_leaves=31
num_cat=0
split_feature=2 2 2 2 2 2 2 2 2 0 2 0 1 0 2 1 2 2 1 1 1 2 2 2 1 2 0 1 1 0
split_gain=164.286 30.8522 28.6712 4.76619 4.56805 3.58417 3.46985 1.17668 0.846092 0.833135 0.703074 0.592726 0.576582 0.556999 0.5285 0.521368 0.500562 0.462673 0.45681 0.414738 0.383963 0.372842 0.333649 0.327278 0.322753 0.320506 0.312563 0.310475 0.252814 0.249865
threshold=0.373367190361023 0.21021902561187747 0.54073756933212291 0.64272990822792064 0.28701016306877142 0.45029027760028845 0.11317456141114236 0.71615648269653331 0.32217311859130865 0.30528433620929724 0.15717772394418719 0.39797466993331915 0.16680960357189181 0.15955271571874621 0.58411401510238659 0.38939833641052252 0.49402955174446112 0.24775695800781253 0.46163742244243627 0.2854928076267243 0.21853146702051165 0.058615913614630706 0.41456656157970434 0.40734265744686132 0.5079496204853059 0.8109579086303712 0.28701016306877142 0.55610898137092601 0.24557989090681079 0.59852883219718944
decision_type=2 2 2 2 2 2 2 2 2 2 2 2 2 2 2 2 2 2 2 2 2 2 2 2 2 2 2 2 2 2
left_child=1 6 5 14 9 11 21 -5 19 17 13 22 -12 -8 27 26 18 20 -7 -6 -3 -1 -2 -13 -18 -9 -10 -4 -19 -16
right_child=2 4 3 7 8 16 10 25 15 -11 12 23 -14 -15 29 -17 24 28 -20 -21 -22 -23 -24 -25 -26 -27 -28 -29 -30 -31
leaf_value=-0.017827933290550987 0.0043512764124290261 -0.003968193638301306 0.014591509953704701 0.019497382670874558 -1.5475577046986146e-05 0.0096905662347747789 -0.0098446218384515422 0.02422059254527335 0.0027657471496595615 -0.007509978479805903 -0.0064767219109661718 0.0010146257290611141 -0.0098949081711219369 -0.013370357221151374 0.017520880675783345 -0.003311698121713242 0.012167700415665514 -0.0016917624283351686 0.0060528224778182088 -0.0028054483204349046 -0.0071831657372151345 -0.014446916932280621 0.0073710267914796459 0.0038231634375312674 0.0089767885179928546 0.030511019171513235 0.00018767719399772871 0.011082231219677227 -0.0041181353077324864 0.014487743948982218
leaf_weight=419 1101 706 476 893 711 591 914 491 610 1088 673 689 1850 879 510 353 534 641 830 2126 784 1472 548 1043 780 97 2053 536 1301 581
leaf_count=419 1101 706 476 893 711 591 914 491 610 1088 673 689 1850 879 510 353 534 641 830 2126 784 1472 548 1043 780 97 2053 536 1301 581
internal_value=0 -0.00604758 0.010337 0.0174391 -0.0027107 0.00617514 -0.0116241 0.0217846 -0.000866566 -0.0050987 -0.0100591 0.00399785 -0.00898312 -0.0115731 0.0143788 0.000299528 0.0088667 -0.00433428 0.00756578 -0.00210623 -0.00565983 -0.0151961 0.00535481 0.00270591 0.0102736 0.0252583 0.000778223 0.0127328 -0.00331726 0.0159056
internal_weight=0 16580 9700 3584 10373 6116 6207 1481 5853 4520 4316 3381 2523 1793 2103 3016 2735 3432 1421 2837 1490 1891 1649 1732 1314 588 2663 1012 1942 1091
internal_count=26280 16580 9700 3584 10373 6116 6207 1481 5853 4520 4316 3381 2523 1793 2103 3016 2735 3432 1421 2837 1490 1891 1649 1732 1314 588 2663 1012 1942 1091
is_linear=0
shrinkage=0.1


Tree=6
num_leaves=31
num_cat=0
split_feature=2 2 2 2 2 2 2 2 0 2 0 0 2 2 0 1 2 1 2 2 2 0 2 0 1 2 2 1 2 0
split_gain=133.315 24.9455 23.4883 4.25111 3.70762 2.94431 2.42593 0.953107 0.741142 0.736329 0.599956 0.542547 0.514615 0.457531 0.433942 0.424061 0.408583 0.385847 0.302002 0.300505 0.299202 0.280069 0.282878 0.279461 0.278385 0.268962 0.266847 0.263175 0.25961 0.246892
threshold=0.36568148434162145 0.53371155261993419 0.20177464187145236 0.64272990822792064 0.27619078755378729 0.44224172830581671 0.11317456141114236 0.71615648269653331 0.28041298687458044 0.31405858695507055 0.14780973643064502 0.373367190361023 0.58411401510238659 0.16456656903028491 0.46770682930946356 0.38524211943149572 0.48400184512138372 0.27210053801536566 0.058615913614630706 0.25567357242107397 0.23957646638154986 0.48400184512138372 0.40021771192550665 0.26761445403099066 0.54073756933212291 0.48400184512138372 0.15018472075462344 0.19728856533765796 0.8109579086303712 0.64916214346885692
decision_type=2 2 2 2 2 2 2 2 2 2 2 2 2 2 2 2 2 2 2 2 2 2 2 2 2 2 2 2 2 2
left_child=2 5 6 12 8 11 18 29 20 17 26 -2 24 -12 25 23 -16 -6 -1 -10 27 22 -13 -11 -3 -7 -8 -4 -9 -5
right_child=1 3 4 7 9 14 10 28 19 15 13 21 -14 -15 16 -17 -18 -19 -20 -21 -22 -23 -24 -25 -26 -27 -28 -29 -30 -31
leaf_value=-0.016045139936245713 0.0047640550361773368 0.013315547170402767 -0.0033892877269499516 0.019406192207366457 -0.00017842886903481515 0.0077838000507103149 -0.0088516921147726597 0.021798533005469203 -0.008289329991252585 0.0023475794861657863 -0.011573891105477949 0.0013518805170183502 0.014315055526185212 -0.0089450932696257032 0.0044173348686081075 -0.0037179441935275351 0.0077425826450523566 -0.0029501261804407413 -0.013002225288959302 -0.0052934373778708542 -0.003106919348267049 -0.0005390973648403786 0.003865492922943001 -0.00027262516303870593 0.010170708352552125 0.010754295168291839 -0.0059010363288443685 -0.0062508006477017793 0.027459917409518333 0.016060056499836425
leaf_weight=419 1374 444 507 397 634 812 663 491 792 489 1227 839 1091 1438 614 311 928 2417 1472 580 1339 315 960 2429 769 488 570 878 97 496
leaf_count=419 1374 444 507 397 634 812 663 491 792 489 1227 839 1091 1438 614 311 928 2417 1472 580 1339 315 960 2429 769 488 570 878 97 496
internal_value=0 0.00900394 -0.00563408 0.0154261 -0.00278683 0.00516382 -0.0107374 0.0196062 -0.00512746 -0.00126021 -0.00931156 0.00321706 0.0127392 -0.0101554 0.0075531 -0.000207656 0.00641852 -0.00237417 -0.0136765 -0.00702284 -0.00417281 0.00221158 0.00269322 0.00016647 0.0113218 0.00889888 -0.00748764 -0.0052033 0.0227325 0.0175476
internal_weight=0 10115 16165 3785 10376 6330 5789 1481 4096 6280 3898 3488 2304 2665 2842 3229 1542 3051 1891 1372 2724 2114 1799 2918 1213 1300 1233 1385 588 893
internal_count=26280 10115 16165 3785 10376 6330 5789 1481 4096 6280 3898 3488 2304 2665 2842 3229 1542 3051 1891 1372 2724 2114 1799 2918 1213 1300 1233 1385 588 893
is_linear=0
shrinkage=0.1


Tree=7
num_leaves=31
num_cat=0
split_feature=2 2 2 2 2 2 2 0 2 2 0 2 0 1 2 0 2 1 2 0 2 2 1 0 1 1 1 1 2 1
split_gain=108.239 23.5328 15.6132 3.4478 2.83698 2.34071 2.28779 0.58878 0.564568 0.535759 0.526944 0.526372 0.429615 0.406401 0.388717 0.355222 0.347271 0.344697 0.332846 0.301139 0.295612 0.293254 0.285902 0.241531 0.239235 0.23818 0.234528 0.228162 0.206655 0.199916
threshold=0.39342261850833898 0.2355521842837334 0.56574085354805004 0.14048687368631366 0.31148567795753485 0.68594142794609081 0.47727271914482122 0.2355521842837334 0.091469850391149535 0.19550732523202899 0.32217311859130865 0.34875972568988806 0.39573162794113165 0.41235651075840002 0.61561551690101635 0.12491753324866296 0.77506926655769359 0.33932577073574072 0.27084708213806158 0.53024807572364818 0.18910806626081469 0.43458899855613714 0.23782820999622348 0.64272990822792064 0.3378084152936936 0.5117759406566621 0.14299380034208301 0.56969916820526134 0.51942870020866405 0.46770682930946356
decision_type=2 2 2 2 2 2 2 2 2 2 2 2 2 2 2 2 2 2 2 2 2 2 2 2 2 2 2 2 2 2
left_child=1 3 6 8 10 14 12 9 -1 26 18 17 -2 24 27 -10 -7 -6 22 28 -9 29 -3 -16 -13 -23 -5 -4 -8 -14
right_child=2 4 5 7 11 16 19 20 15 -11 -12 13 21 -15 23 -17 -18 -19 -20 -21 -22 25 -24 -25 -26 -27 -28 -29 -30 -31
leaf_value=-0.013152458466356621 0.005870445501378576 -0.0018764540164374042 0.013849103385987488 -0.0054035818543525238 0.00018771171421097616 0.018272231523541439 0.0083347362929009194 -0.010509411787697629 -0.008514545622336514 -0.0044476315130165473 -0.0049048858438139062 0.0037918970044378353 0.0027741122432865233 -0.0021347041552852398 0.015859564511862413 -0.011415481302629477 0.023051527409981461 -0.0023014397616953576 -0.0017323176474604214 0.0070901861912237921 -0.007605391322944942 0.0050572047825236648 -0.0046005429409229567 0.012872416184594235 0.0013069998536803912 -0.00013100964439667994 -0.007912067908812383 0.010672398641273924 0.010793110852440198 -0.0014935282960770622
leaf_weight=1152 1185 621 345 512 1671 690 829 536 680 1095 1117 513 852 281 593 1113 195 834 2503 1015 1013 1008 1015 498 1583 97 1370 656 582 126
leaf_count=1152 1185 621 345 512 1671 690 829 536 680 1095 1117 513 852 281 593 1113 195 834 2503 1015 1013 1008 1015 498 1583 97 1370 656 582 126
internal_value=0 -0.00450347 0.0091456 -0.00876196 -0.00136525 0.0150141 0.00607735 -0.00702908 -0.0114251 -0.00620636 -0.00297747 0.000370471 0.0043503 0.00143642 0.0131904 -0.0103153 0.0193253 -0.000641012 -0.00245731 0.0084038 -0.00861027 0.00348551 -0.00356652 0.014496 0.00191518 0.00460177 -0.00722963 0.0117673 0.00934875 0.00222429
internal_weight=0 17609 8671 7471 10138 2977 5694 4526 2945 2977 5256 4882 3268 2377 2092 1793 885 2505 4139 2426 1549 2083 1636 1091 2096 1105 1882 1001 1411 978
internal_count=26280 17609 8671 7471 10138 2977 5694 4526 2945 2977 5256 4882 3268 2377 2092 1793 885 2505 4139 2426 1549 2083 1636 1091 2096 1105 1882 1001 1411 978
is_linear=0
shrinkage=0.1


Tree=8
num_leaves=31
num_cat=0
split_feature=2 2 2 2 2 2 2 2 0 0 2 1 2 0 2 1 2 0 2 1 2 2 2 1 1 0 1 1 1 1
split_gain=87.7344 18.2785 13.456 2.62809 2.2524 1.99654 1.97206 0.497085 0.492117 0.471095 0.441865 0.378248 0.360759 0.339801 0.345156 0.334282 0.316104 0.297699 0.292905 0.319362 0.286559 0.275877 0.253183 0.242944 0.236888 0.218449 0.200468 0.200285 0.196239 0.193332
threshold=0.38708932697772985 0.23100013285875323 0.5613207519054414 0.14299380034208301 0.30528433620929724 0.68594142794609081 0.46480406820774084 0.10040902718901636 0.20381976664066317 0.31531204283237463 0.34295421838760382 0.39797466993331915 0.62043145298957836 0.46770682930946356 0.42475920915603643 0.35416941344738012 0.18910806626081469 0.15018472075462344 0.50405725836753856 0.46770682930946356 0.75560760498046886 0.19128512591123584 0.26266658306121832 0.23957646638154986 0.5117759406566621 0.60977700352668773 0.33576329052448278 0.26108326017856603 0.3025794923305512 0.24142367392778399
decision_type=2 2 2 2 2 2 2 2 2 2 2 2 2 2 2 2 2 2 2 2 2 2 2 2 2 2 2 2 2 2
left_child=1 3 6 7 9 12 13 -1 21 22 15 26 25 14 -2 28 -10 -9 19 -8 -7 -5 23 -3 -20 -4 -12 -24 -6 -18
right_child=2 4 5 8 10 20 18 17 16 -11 11 -13 -14 -15 -16 -17 29 -19 24 -21 -22 -23 27 -25 -26 -27 -28 -29 -30 -31
leaf_value=-0.011544656023474622 0.0030705437715381669 -0.0021149161676753472 0.011612656089383744 -0.0061666442401281316 0.0010070961099508339 0.016126840317470803 0.0081733573765985761 -0.0076626765389168463 -0.0090226153991137346 -0.0047133363584852851 0.0032022500797098947 -0.001785424659360193 0.013176310194877819 0.0015564535169231516 0.0054636334406632688 -0.0034839848200831111 -0.0054254943613222875 -0.010403224630632544 0.0099656289267652451 0.0048113925775509448 0.019950544353536371 -0.0038142036825881184 -0.00035499353658515159 -0.0047986445007577047 0.0072737566896217245 0.0088031857830470142 0.00098862331302782664 -0.0023532894371172449 -0.0009652076472136434 -0.0079298887828165767
leaf_weight=1466 1441 659 767 1357 740 592 445 818 799 1129 575 388 992 686 1036 395 731 769 477 774 293 788 701 691 1039 433 1418 1763 1585 533
leaf_count=1466 1441 659 767 1357 740 592 445 818 799 1129 575 388 992 686 1036 395 731 769 477 774 293 788 701 691 1039 433 1418 1763 1585 533
internal_value=0 -0.00416106 0.00802307 -0.00798348 -0.00139775 0.0133839 0.00522633 -0.010217 -0.00636299 -0.00291901 7.6385e-05 0.00107115 0.0117653 0.00352599 0.00407145 -0.000794403 -0.0074657 -0.00899064 0.00719276 0.00603869 0.0173928 -0.00530244 -0.00238786 -0.00348859 0.00812074 0.0105989 0.00162728 -0.00178478 -0.000337464 -0.00648154
internal_weight=0 17305 8975 7261 10044 3077 5898 3053 4208 4943 5101 2381 2192 3163 2477 2720 2063 1587 2735 1219 885 2145 3814 1350 1516 1200 1993 2464 2325 1264
internal_count=26280 17305 8975 7261 10044 3077 5898 3053 4208 4943 5101 2381 2192 3163 2477 2720 2063 1587 2735 1219 885 2145 3814 1350 1516 1200 1993 2464 2325 1264
is_linear=0
shrinkage=0.1


Tree=9
num_leaves=31
num_cat=0
split_feature=2 2 2 2 2 2 2 0 2 0 2 1 0 2 0 2 2 1 2 2 2 1 1 1 1 0 0 2 2 2
split_gain=71.2427 13.3545 12.5719 2.31148 1.75935 1.56429 1.5478 0.449906 0.427964 0.403581 0.378038 0.353503 0.333678 0.310478 0.294627 0.272761 0.259186 0.240507 0.240307 0.235831 0.23026 0.209347 0.19971 0.197074 0.19485 0.175036 0.172181 0.170072 0.160791 0.160023
threshold=0.36568148434162145 0.53371155261993419 0.21021902561187747 0.6559242606163026 0.28701016306877142 0.43458899855613714 0.11891410499811174 0.26939569413661962 0.72753661870956432 0.18910806626081469 0.59417471289634716 0.37732550501823431 0.26108326017856603 0.25936798751354223 0.44718959927558904 0.33576329052448278 0.48743237555027014 0.35021111369133001 0.17367067188024524 0.051424989476799972 0.16680960357189181 0.61561551690101635 0.45029027760028845 0.39342261850833898 0.56574085354805004 0.67155957221984874 0.097407311201095595 0.25765272974967962 0.40232880413532263 0.48400184512138372
decision_type=2 2 2 2 2 2 2 2 2 2 2 2 2 2 2 2 2 2 2 2 2 2 2 2 2 2 2 2 2 2
left_child=2 5 6 10 7 11 19 27 25 20 24 -2 -6 -9 29 17 -16 -14 -11 -1 -8 -12 28 -17 -3 -5 -21 -4 -13 -7
right_child=1 3 4 8 12 14 9 13 -10 18 21 22 15 -15 16 23 -18 -19 -20 26 -22 -23 -24 -25 -26 -27 -28 -29 -30 -31
leaf_value=-0.012385962799096564 0.0037129780593602225 0.009471655771367056 -0.0030945375721209566 0.014833150831277314 0.0010274427166739634 0.0057917178021331195 -0.0064324400057469231 -0.0057984997655829776 0.01705688762269458 -0.008774090015456466 0.012526251356323043 0.00096265149180010273 -0.0012545021377258563 -0.0033489224699465789 0.0033934352741152134 0.00047810383012219615 0.0057198337865109489 -0.0038756475491657574 -0.00655415321960194 -0.0081050932311784608 -0.0043204046467422881 0.0097237025708651233 -0.00092392334363345676 -0.0030341736135277055 0.0071039388197823433 0.011858299364105852 -0.010150295478402528 -0.0013642578206561719 0.0028381343852003933 0.0082517913263047953
leaf_weight=314 1045 791 1523 383 923 854 1263 940 490 887 462 956 2622 1151 944 1307 972 404 1083 643 873 630 300 182 620 409 1144 906 876 383
leaf_count=314 1045 791 1523 383 923 854 1263 940 490 887 462 956 2622 1151 944 1307 972 404 1083 643 873 630 300 182 620 409 1144 906 876 383
internal_value=0 0.00658207 -0.00411863 0.011281 -0.00191688 0.00377236 -0.00765094 -0.00337482 0.014734 -0.00652135 0.00951242 0.00220629 -0.000705052 -0.00445012 0.00535035 -0.00105923 0.00457363 -0.00160445 -0.00755369 -0.0098585 -0.00556923 0.0109094 0.00146779 4.87993e-05 0.00843127 0.0132969 -0.00941439 -0.00244916 0.00185944 0.00655341
internal_weight=0 10115 16165 3785 9958 6330 6207 4520 1282 4106 2503 3177 5438 2091 3153 4515 1916 3026 1970 2101 2136 1092 2132 1489 1411 792 1787 2429 1832 1237
internal_count=26280 10115 16165 3785 9958 6330 6207 4520 1282 4106 2503 3177 5438 2091 3153 4515 1916 3026 1970 2101 2136 1092 2132 1489 1411 792 1787 2429 1832 1237
is_linear=0
shrinkage=0.1


Tree=10
num_leaves=31
num_cat=0
split_feature=2 2 2 2 2 2 2 0 2 0 0 0 0 2 2 0 2 2 1 1 1 1 0 1 2 2 1 2 2 2
split_gain=57.7681 13.3288 7.70134 2.0378 1.64202 1.1496 1.11083 0.429177 0.412426 0.362682 0.298857 0.281346 0.281229 0.279686 0.269613 0.22876 0.224726 0.209298 0.203086 0.196856 0.195221 0.187489 0.187234 0.186013 0.212597 0.175231 0.160385 0.141847 0.134173 0.131234
threshold=0.40232880413532263 0.24142367392778399 0.57438316941261303 0.15018472075462344 0.32824251055717474 0.70520517230033886 0.48400184512138372 0.25349649786949163 0.081442143768072142 0.34658266603946691 0.43175220489501959 0.38128381967544561 0.10684126988053323 0.19550732523202899 0.29743370413780218 0.54073756933212291 0.63118484616279613 0.361624225974083 0.14536877721548083 0.32982583343982702 0.24980208277702334 0.58883097767829906 0.64916214346885692 0.5117759406566621 0.43729384243488317 0.8109579086303712 0.18435809761285785 0.26629503071308142 0.52305713295936596 0.5266195833683015
decision_type=2 2 2 2 2 2 2 2 2 2 2 2 2 2 2 2 2 2 2 2 2 2 2 2 2 2 2 2 2 2
left_child=1 3 6 8 9 16 11 13 -1 14 17 -2 -10 18 20 28 21 19 -5 -6 -3 -4 -18 24 -13 -7 -15 -22 -8 -17
right_child=2 4 5 7 10 25 15 -9 12 -11 -12 23 -14 26 -16 29 22 -19 -20 -21 27 -23 -24 -25 -26 -27 -28 -29 -30 -31
leaf_value=-0.010070664217797841 0.0050382932011093905 -0.00084143248164504517 0.010746631898817798 -0.003076933730174234 0.0017317315358365032 0.014121076737883135 0.0062549796514441997 -0.0064072359807869506 -0.005850694560176185 -0.0036256737254360075 -0.0014371226198270056 0.0019754069882736663 -0.008180903454002476 -0.0016253551394631715 -0.0005658945560479303 0.0036126191055831877 0.012545456615919921 0.0019094294700074971 -0.005708979203800162 -0.00042565140498368931 -0.0038101822180304197 0.0080448188348251678 0.0097984192702244583 -0.00054250208947642826 0.004021613418889537 0.018708029896328131 -0.0039210438929829601 -0.0020647792221819522 0.0081688307493373215 0.0060433687417354373
leaf_weight=838 846 952 412 378 666 589 801 1301 727 948 534 893 1801 439 1944 353 485 1676 1306 1159 639 682 508 147 1177 97 992 1716 675 599
leaf_count=838 846 952 412 378 666 589 801 1301 727 948 534 893 1801 439 1944 353 485 1676 1306 1159 639 682 508 147 1177 97 992 1716 675 599
internal_value=0 -0.00317539 0.00692254 -0.00629459 -0.000803534 0.0112183 0.00475315 -0.0048818 -0.00814809 -0.00182548 0.000766489 0.00348682 -0.00751078 -0.00424469 -0.00150048 0.00635067 0.0100509 0.0011026 -0.00511818 0.000361646 -0.00204987 0.00906232 0.0111401 0.00289478 0.00313888 0.0147697 -0.00321678 -0.00253837 0.00713022 0.00514205
internal_weight=0 18016 8264 7782 10234 2773 5491 4416 3366 6199 4035 3063 2528 3115 5251 2428 2087 3501 1684 1825 3307 1094 993 2217 2070 686 1431 2355 1476 952
internal_count=26280 18016 8264 7782 10234 2773 5491 4416 3366 6199 4035 3063 2528 3115 5251 2428 2087 3501 1684 1825 3307 1094 993 2217 2070 686 1431 2355 1476 952
is_linear=0
shrinkage=0.1


Tree=11
num_leaves=31
num_cat=0
split_feature=2 2 2 2 2 2 2 0 0 1 2 2 1 2 1 2 0 2 2 1 2 1 0 2 1 1 2 1 1 1
split_gain=46.8614 9.51185 7.46253 1.49506 1.1479 1.1262 1.08277 0.353531 0.314328 0.278738 0.254902 0.233191 0.254272 0.229921 0.22727 0.213707 0.197323 0.196003 0.194082 0.188319 0.182783 0.174839 0.168079 0.167704 0.158887 0.155282 0.151703 0.149151 0.135353 0.134257
threshold=0.38346087932586675 0.21463913470506671 0.55610898137092601 0.29980868101120001 0.68594142794609081 0.11601134762167932 0.45860272645950323 0.31531204283237463 0.14780973643064502 0.47410607337951666 0.16918458789587024 0.3378084152936936 0.35416941344738012 0.60977700352668773 0.29980868101120001 0.41971236467361456 0.48070326447486883 0.25765272974967962 0.50405725836753856 0.21021902561187747 0.8109579086303712 0.39150944352149969 0.62537935376167308 0.042419843375682838 0.22704182565212253 0.41235651075840002 0.16680960357189181 0.5613207519054414 0.35806174576282507 0.24775695800781253
decision_type=2 2 2 2 2 2 2 2 2 2 2 2 2 2 2 2 2 2 2 2 2 2 2 2 2 2 2 2 2 2
left_child=1 5 6 7 13 23 9 17 26 15 -10 14 -13 27 -5 21 -8 19 -18 -3 -6 -2 -15 -1 -12 -17 -7 -4 -16 -19
right_child=2 3 4 11 20 8 16 -9 10 -11 24 12 -14 22 28 25 18 29 -20 -21 -22 -23 -24 -25 -26 -27 -28 -29 -30 -31
leaf_value=-0.010779347643256188 0.0031267854695939904 -0.0013440833885872256 0.0090899562192780347 0.00069852838843730447 0.012236881074566526 -0.0046809519245643695 0.0061009861702602461 -0.0040333368520619048 -0.0068350505925990086 -0.00067572115498860041 -0.0044331292080097423 0.0017725768035645507 -0.00026264818592821145 0.010760057336815142 -0.00094634915174941553 0.00519900014344272 0.0030816274029633181 -8.9202387306972942e-05 0.0052865742889921892 -0.0035264480731717917 0.016837227836097639 0.0010016995200512954 0.0083760464005603434 -0.0077919748635265811 -0.0065122590365582246 0.0028839599676053918 -0.0023540749633768508 0.0066297517511443478 -0.0033354823384857315 -0.0018494623477807327
leaf_weight=210 680 585 372 824 788 854 1172 1108 1327 267 1316 1092 1402 544 1722 431 664 562 1001 1220 97 899 648 1787 510 884 417 730 275 1892
leaf_count=210 680 585 372 824 788 854 1172 1108 1327 267 1316 1092 1402 544 1722 431 664 562 1001 1220 97 899 648 1787 510 884 417 730 275 1892
internal_value=0 -0.00309321 0.00576475 -0.00126481 0.00968173 -0.00613494 0.00368872 -0.00244211 -0.00524515 0.00241585 -0.00578032 -7.59854e-05 0.000628477 0.00850145 -0.000698789 0.00270108 0.00510695 -0.00202815 0.00440724 -0.00281914 0.0127411 0.00191687 0.00946405 -0.00810612 -0.00501383 0.00364273 -0.00391753 0.00746024 -0.00127535 -0.00144634
internal_weight=0 17103 9177 10682 3179 6421 5998 5367 4424 3161 3153 5315 2494 2294 2821 2894 2837 4259 1665 1805 885 1579 1192 1997 1826 1315 1271 1102 1997 2454
internal_count=26280 17103 9177 10682 3179 6421 5998 5367 4424 3161 3153 5315 2494 2294 2821 2894 2837 4259 1665 1805 885 1579 1192 1997 1826 1315 1271 1102 1997 2454
is_linear=0
shrinkage=0.1


Tree=12
num_leaves=31
num_cat=0
split_feature=2 2 2 2 2 2 2 0 0 0 2 2 0 0 2 2 1 1 2 1 2 1 1 2 0 1 1 1 2 0
split_gain=38.0597 6.95905 6.87774 1.09504 1.08657 0.943239 0.813357 0.289166 0.283125 0.222792 0.234412 0.217897 0.216042 0.207138 0.182835 0.180414 0.183577 0.176223 0.175049 0.155154 0.151095 0.136294 0.134833 0.134747 0.127217 0.124627 0.116869 0.112398 0.112114 0.13262
threshold=0.36947485804557806 0.20579891651868823 0.54433304071426403 0.66281831264495861 0.2854928076267243 0.45273122191429144 0.10684126988053323 0.29855522513389593 0.16918458789587024 0.40232880413532263 0.32982583343982702 0.75560760498046886 0.48400184512138372 0.55221664905548107 0.15955271571874621 0.41971236467361456 0.36947485804557806 0.28041298687458044 0.59417471289634716 0.61561551690101635 0.50079166889190685 0.44488058984279638 0.5613207519054414 0.16680960357189181 0.68594142794609081 0.32665918767452246 0.21642037481069568 0.41235651075840002 0.042419843375682838 0.097407311201095595
decision_type=2 2 2 2 2 2 2 2 2 2 2 2 2 2 2 2 2 2 2 2 2 2 2 2 2 2 2 2 2 2
left_child=1 6 5 18 7 12 28 -3 23 10 17 24 15 20 -10 16 -2 -6 22 -20 21 -7 -4 -8 -5 -12 -16 -17 -1 -30
right_child=2 4 3 11 9 13 8 -9 14 -11 25 -13 -14 -15 26 27 -18 -19 19 -21 -22 -23 -24 -25 -26 -27 -28 -29 29 -31
leaf_value=-0.0097014129374708453 0.0030176553358149589 -0.0020596262600500936 0.0075193868434690024 0.011357586081620023 0.00064092358662218155 0.0057290184730361517 -0.0045638221416158479 -0.003851770251177427 -0.0067832321501537221 -0.0023360620472888927 0.0017692185356072488 0.01330985248902552 -0.00026734536456338734 0.0025906767567959754 -0.0043612983525836207 0.0045647937187633077 0.0010495021876822893 -0.0011614092313276603 0.0094236411455070022 0.0070997098463420651 0.005840469389653935 0.0035068563819289781 0.0053021587246084127 -0.0026970452757290281 0.008965073792005283 4.8330101585024951e-05 -0.0062077040334966469 0.0024491233855270748 -0.0061604102642363202 -0.0080748603782467964
leaf_weight=210 688 3397 497 446 687 385 1343 1225 907 579 626 293 406 533 1006 402 1523 2579 483 709 842 975 612 543 443 1284 520 669 647 821
leaf_count=210 688 3397 497 446 687 385 1343 1225 907 579 626 293 406 533 1006 402 1523 2579 483 709 842 975 612 543 443 1284 520 669 647 821
internal_value=0 -0.00296 0.0048927 0.00847091 -0.00139278 0.00295234 -0.00567186 -0.00253461 -0.00494595 -0.000475752 -0.000267653 0.0109448 0.00190876 0.00435955 -0.0056588 0.00217796 0.00166194 -0.00078229 0.00720007 0.00804137 0.00478771 0.00413592 0.00629581 -0.00402636 0.0101654 0.000612349 -0.00499048 0.00324324 -0.00754025 -0.00723109
internal_weight=0 16374 9906 3483 10377 6423 5997 4622 4319 5755 5176 1182 3688 2735 2433 3282 2211 3266 2301 1192 2202 1360 1109 1886 889 1910 1526 1071 1678 1468
internal_count=26280 16374 9906 3483 10377 6423 5997 4622 4319 5755 5176 1182 3688 2735 2433 3282 2211 3266 2301 1192 2202 1360 1109 1886 889 1910 1526 1071 1678 1468
is_linear=0
shrinkage=0.1


Tree=13
num_leaves=31
num_cat=0
split_feature=2 2 2 2 2 2 2 0 2 1 0 1 2 1 2 0 2 0 0 2 1 1 2 2 1 1 2 1 1 2
split_gain=30.8583 6.81741 4.49274 1.11949 0.726367 0.714423 0.648845 0.262463 0.240051 0.226855 0.198025 0.183804 0.180047 0.165956 0.16244 0.162162 0.152354 0.151551 0.149119 0.140907 0.140454 0.139435 0.133408 0.125684 0.122382 0.108047 0.106886 0.106874 0.104196 0.0984196
threshold=0.39342261850833898 0.24366671591997149 0.57438316941261303 0.13270220160484317 0.47727271914482122 0.31781896948814398 0.70520517230033886 0.16680960357189181 0.18435809761285785 0.31920439004898077 0.44488058984279638 0.41235651075840002 0.076428290456533446 0.25151735544204717 0.18000396341085437 0.49686634540557867 0.42475920915603643 0.11601134762167932 0.62537935376167308 0.35621453821659094 0.31531204283237463 0.50079166889190685 0.64272990822792064 0.27493733167648321 0.25567357242107397 0.25765272974967962 0.63725426793098461 0.1303931921720505 0.35621453821659094 0.8109579086303712
decision_type=2 2 2 2 2 2 2 2 2 2 2 2 2 2 2 2 2 2 2 2 2 2 2 2 2 2 2 2 2 2
left_child=1 3 4 12 11 9 18 14 -9 23 19 -2 -1 -10 27 -6 -13 -14 22 20 -7 -18 -4 24 -3 -25 -20 -5 -21 -8
right_child=2 5 6 7 15 10 29 8 13 -11 -12 16 17 -15 -16 -17 21 -19 26 28 -22 -23 -24 25 -26 -27 -28 -29 -30 -31
leaf_value=-0.0076075211219571118 0.0033612516534889097 -0.00084607439036444004 0.0074892963644172727 -0.002262353837715655 0.0054972303075340369 0.0012095385128460647 0.01038488832560126 -0.0053096538660165962 -0.0030878521840178186 -0.0028897809326067867 -0.002005257099381466 0.00043579313638492659 -0.004666957630037551 -0.0049730629351067788 -0.0015070772222907989 0.0039019665125862163 0.0026497781478433602 -0.0064903227225210948 0.0052639304752882116 0.0022223931731163425 -0.00051444970538344138 -0.00036362746196820517 0.010033987943984113 0.00079015978864168616 -0.0025284122533723863 -0.00096232093832197157 0.0073457290727261581 -0.0044136984291684497 0.00061212146783007728 0.013822519134000406
leaf_weight=731 1126 777 804 391 1084 671 589 1299 1678 863 338 603 760 647 676 1546 1366 1139 433 627 1598 173 277 414 975 2342 573 564 1119 97
leaf_count=731 1126 777 804 391 1084 671 589 1299 1678 863 338 603 760 647 676 1546 1366 1139 433 627 1598 173 277 414 975 2342 573 564 1119 97
internal_value=0 -0.00240459 0.00488321 -0.00458965 0.00332243 -0.000632762 0.00820291 -0.0037467 -0.00422081 -0.00140441 0.000319352 0.00232688 -0.00627394 -0.00361247 -0.00269325 0.00455948 0.00178313 -0.00576059 0.00732592 0.000515047 -4.62331e-06 0.00231104 0.00814136 -0.00112006 -0.00178231 -0.000699067 0.00644969 -0.00353289 0.00119038 0.010871
internal_weight=0 17609 8671 7885 5898 9724 2773 5255 3624 5371 4353 3268 2630 2325 1631 2630 2142 1899 2087 4015 2269 1539 1081 4508 1752 2756 1006 955 1746 686
internal_count=26280 17609 8671 7885 5898 9724 2773 5255 3624 5371 4353 3268 2630 2325 1631 2630 2142 1899 2087 4015 2269 1539 1081 4508 1752 2756 1006 955 1746 686
is_linear=0
shrinkage=0.1


Tree=14
num_leaves=31
num_cat=0
split_feature=2 2 2 2 2 2 2 0 2 1 1 1 0 1 2 2 2 1 0 1 0 1 2 2 2 2 1 2 2 2
split_gain=25.0336 5.84269 3.33199 0.970536 0.627846 0.525564 0.501366 0.249312 0.227611 0.202438 0.18856 0.181195 0.16118 0.152271 0.134578 0.129328 0.127476 0.12494 0.124925 0.117821 0.11447 0.104708 0.104478 0.101243 0.0973086 0.0954913 0.0926687 0.0912421 0.0860733 0.0797199
threshold=0.40232880413532263 0.24775695800781253 0.57438316941261303 0.15255970507860186 0.32527378201484686 0.70520517230033886 0.50079166889190685 0.25349649786949163 0.097407311201095595 0.31920439004898077 0.11601134762167932 0.41456656157970434 0.42713418602943426 0.51540440320968639 0.35806174576282507 0.19933369010686877 0.29743370413780218 0.14780973643064502 0.63725426793098461 0.33932577073574072 0.57438316941261303 0.25567357242107397 0.64272990822792064 0.44718959927558904 0.3011940866708756 0.45273122191429144 0.18435809761285785 0.62537935376167308 0.19933369010686877 0.8109579086303712
decision_type=2 2 2 2 2 2 2 2 2 2 2 2 2 2 2 2 2 2 2 2 2 2 2 2 2 2 2 2 2 2
left_child=1 3 6 8 9 18 12 15 -1 16 -10 14 23 -8 19 17 21 -5 22 -6 25 -3 -4 -2 -11 -14 -17 -20 -9 -7
right_child=2 4 5 7 11 29 13 28 10 24 -12 -13 20 -15 -16 26 -18 -19 27 -21 -22 -23 -24 -25 -26 -27 -28 -29 -30 -31
leaf_value=-0.0063561680452788585 0.0025876015343892275 -0.00032986800096177437 0.0066909627355321247 -0.0016138771715020841 0.00085404602840980946 0.0093463994376835734 0.0056934456174543889 -0.0053206890564758691 -0.0033277664687358004 -0.0035549929899930514 -0.0053495135044856522 -0.0014566442579223222 0.0012703248859850759 0.0038040561954461659 0.0012757856403577406 -0.00067038000976610724 -9.6876004717946966e-05 -0.0036697677556596781 0.0041618239475824607 -0.00072135963876098495 -0.00135344244663769 -0.0016026532024712395 0.0087906065682416372 0.0042573121353383396 -0.0016222468565908685 0.0026981151790631962 -0.0024457094729845468 0.0063686633374282105 -0.003681440533332333 0.012440267696823042
leaf_weight=1360 1023 920 890 378 973 589 639 478 681 425 1430 443 905 1283 1899 411 1485 1356 272 927 107 2173 323 563 673 971 1033 602 971 97
leaf_count=1360 1023 920 890 378 973 589 639 478 681 425 1430 443 905 1283 1899 411 1485 1356 272 927 107 2173 323 563 673 971 1033 602 971 97
internal_value=0 -0.00209033 0.00455704 -0.0040833 -0.000463081 0.00738262 0.0031301 -0.00313511 -0.00534728 -0.00115091 -0.00469731 0.000457263 0.00242888 0.00443221 0.000680443 -0.00263946 -0.000858433 -0.0032216 0.00659333 8.54139e-05 0.00182788 -0.00122407 0.00725006 0.00318032 -0.00237035 0.00200934 -0.0019404 0.00568187 -0.0042222 0.00978387
internal_weight=0 18016 8264 8098 9918 2773 5491 4627 3471 5676 2111 4242 3569 1922 3799 3178 4578 1734 2087 1900 1983 3093 1213 1586 1098 1876 1444 874 1449 686
internal_count=26280 18016 8264 8098 9918 2773 5491 4627 3471 5676 2111 4242 3569 1922 3799 3178 4578 1734 2087 1900 1983 3093 1213 1586 1098 1876 1444 874 1449 686
is_linear=0
shrinkage=0.1


Tree=15
num_leaves=31
num_cat=0
split_feature=2 2 2 2 2 2 2 1 0 1 1 2 0 2 2 1 1 0 2 2 0 1 2 2 1 1 1 2 2 2
split_gain=20.3157 3.777 3.75378 0.719848 0.607074 0.404741 0.357163 0.192473 0.178957 0.174351 0.16347 0.158696 0.144492 0.138432 0.123123 0.112921 0.110799 0.109736 0.103643 0.103121 0.11989 0.101321 0.0999302 0.0975889 0.0986776 0.0967087 0.0866477 0.127955 0.0814247 0.078089
threshold=0.36947485804557806 0.5266195833683015 0.22704182565212253 0.64916214346885692 0.12247658148407937 0.29855522513389593 0.42924527823925024 0.28832960128784185 0.14780973643064502 0.44488058984279638 0.37521441280841833 0.72753661870956432 0.55221664905548107 0.18000396341085437 0.26266658306121832 0.23782820999622348 0.36360338330268865 0.56574085354805004 0.3378084152936936 0.06475128605961801 0.097407311201095595 0.29980868101120001 0.59417471289634716 0.26761445403099066 0.22268769145011905 0.64916214346885692 0.42713418602943426 0.48743237555027014 0.17142762988805774 0.59852883219718944
decision_type=2 2 2 2 2 2 2 2 2 2 2 2 2 2 2 2 2 2 2 2 2 2 2 2 2 2 2 2 2 2
left_child=2 6 4 17 19 7 9 23 28 16 18 25 26 -10 -9 -15 -2 29 21 -1 -21 -7 -19 24 -4 -5 -8 -28 -6 -3
right_child=1 3 5 11 8 10 12 14 13 -11 -12 -13 -14 15 -16 -17 -18 22 -20 20 -22 -23 -24 -25 -26 -27 27 -29 -30 -31
leaf_value=-0.006504677199931321 0.0025957177309350078 0.0052548623128769499 -0.00047769845443773417 0.00888042833035191 -0.0028537511895444243 0.00056901719483985356 0.0040344334456338029 -0.0042999278767597692 -0.0043190509709796271 -0.0011641550968769054 -0.0017678409738254197 0.009244038070723111 0.00084856581060223336 -0.002592575520186725 -0.0020011778189587331 -0.0042743994626097672 0.00103600477988952 0.0034804740217669904 0.00075050909042024291 -0.0036276615125058554 -0.0054576999880293813 -0.00073086971661149799 0.0051892506908615132 -0.00042081069680690154 -0.0020480573794470613 0.006426208459292853 0.0020674404492815254 0.0036412179475679403 -0.0011758242929309883 0.007224866128692279
leaf_weight=523 602 983 589 210 803 877 580 291 1626 293 577 490 372 1403 1169 558 1871 666 1343 516 1169 1896 704 1334 1248 682 1371 829 452 253
leaf_count=523 602 983 589 210 803 877 580 291 1626 293 577 490 372 1403 1169 558 1871 666 1343 516 1169 1896 704 1334 1248 682 1371 829 452 253
internal_value=0 0.00357464 -0.0021626 0.00595331 -0.00390386 -0.000846007 0.00197171 -0.00150925 -0.00327722 0.0011424 -0.000191522 0.00779822 0.00269945 -0.00363682 -0.00245935 -0.00307114 0.00141568 0.00497492 2.9454e-05 -0.00527802 -0.00489728 -0.000319762 0.00435856 -0.00107181 -0.00154455 0.007004 0.00294712 0.00266047 -0.00224943 0.00565811
internal_weight=0 9906 16374 3988 7050 9324 5918 4631 4842 2766 4693 1382 3152 3587 1460 1961 2473 2606 4116 2208 1685 2773 1370 3171 1837 892 2780 2200 1255 1236
internal_count=26280 9906 16374 3988 7050 9324 5918 4631 4842 2766 4693 1382 3152 3587 1460 1961 2473 2606 4116 2208 1685 2773 1370 3171 1837 892 2780 2200 1255 1236
is_linear=0
shrinkage=0.1


Tree=16
num_leaves=31
num_cat=0
split_feature=2 2 2 2 2 2 2 0 1 0 0 2 2 1 1 2 0 1 0 1 2 2 1 1 2 1 1 2 2 2
split_gain=16.5096 3.78805 2.23848 0.552002 0.484943 0.371671 0.315979 0.158449 0.157926 0.130184 0.121874 0.126891 0.119662 0.114139 0.108027 0.105121 0.105691 0.0958955 0.0956151 0.0911523 0.135554 0.090504 0.127305 0.085168 0.0844938 0.083116 0.0829771 0.0827853 0.072944 0.0679397
threshold=0.40021771192550665 0.2355521842837334 0.56969916820526134 0.13270220160484317 0.30660377442836767 0.70520517230033886 0.49073097109794622 0.20381976664066317 0.31531204283237463 0.53371155261993419 0.44488058984279638 0.35416941344738012 0.19352816790342334 0.49686634540557867 0.30528433620929724 0.076428290456533446 0.13270220160484317 0.25349649786949163 0.64272990822792064 0.24142367392778399 0.2642499059438706 0.44718959927558904 0.39150944352149969 0.42713418602943426 0.63118484616279613 0.59852883219718944 0.33576329052448278 0.51942870020866405 0.63118484616279613 0.18000396341085437
decision_type=2 2 2 2 2 2 2 2 2 2 2 2 2 2 2 2 2 2 2 2 2 2 2 2 2 2 2 2 2 2
left_child=1 3 6 15 8 18 9 29 19 21 11 14 -9 -8 -6 -1 -17 -14 24 -3 -21 22 -2 -23 -4 27 -13 -15 -20 -5
right_child=2 4 5 7 10 -7 13 12 -10 -11 -12 26 17 25 -16 16 -18 -19 28 20 -22 23 -24 -25 -26 -27 -28 -29 -30 -31
leaf_value=-0.0056172625213624502 0.0030338432152635514 -0.000122333426600657 0.0052460260673567816 -0.0027253558347603239 0.00085595553858138764 0.0079583693368349539 0.0046898160527484292 -0.0042004561033607227 -0.0026955455055361253 -0.00023764652805936993 -0.0014632565190368042 0.0021571312035514444 -0.0021598476010507559 0.0020423218034507275 -0.00047979874679862839 -0.003495671615444253 -0.0049895282708361625 -0.0040074183205750001 0.0031170328377922766 -0.0022913032618492486 -0.00084907004063036252 0.0043732874669432124 0.0011487931535825776 0.0023083208026904965 0.0069083300160902947 -0.00021736097880516595 0.00057428390399234623 0.0036597032064843611 0.0051138617051166933 -0.0016838503898610746
leaf_weight=731 481 931 920 1374 827 686 543 1028 628 267 432 413 874 453 2260 996 903 414 278 897 2383 252 1404 963 458 76 1672 1050 535 1151
leaf_count=731 481 931 920 1374 827 686 543 1028 628 267 432 413 874 453 2260 996 903 414 278 897 2383 252 1404 963 458 76 1672 1050 535 1151
internal_value=0 -0.00171284 0.00366769 -0.00343208 -0.000482891 0.00592709 0.00248344 -0.00279851 -0.00121623 0.00188111 0.000150339 0.000285118 -0.00339588 0.00343917 -0.000121953 -0.00459827 -0.00420602 -0.00275371 0.0052911 -0.000995613 -0.00124349 0.0020636 0.00162981 0.00273661 0.00579852 0.00300908 0.000887817 0.00317223 0.00443106 -0.00225059
internal_weight=0 17914 8366 7471 10443 2877 5489 4841 4839 3367 5604 5172 2316 2122 3087 2630 1899 1288 2191 4211 3280 3100 1885 1215 1378 1579 2085 1503 813 2525
internal_count=26280 17914 8366 7471 10443 2877 5489 4841 4839 3367 5604 5172 2316 2122 3087 2630 1899 1288 2191 4211 3280 3100 1885 1215 1378 1579 2085 1503 813 2525
is_linear=0
shrinkage=0.1


Tree=17
num_leaves=31
num_cat=0
split_feature=2 2 2 2 2 2 2 0 2 0 1 1 1 0 1 2 0 2 1 2 1 0 2 0 2 1 2 1 2 2
split_gain=13.3977 3.21384 1.69294 0.540977 0.351925 0.270223 0.265987 0.148435 0.136934 0.139021 0.130986 0.124649 0.118523 0.111912 0.101376 0.0934032 0.0865129 0.0812942 0.0840432 0.0802672 0.070757 0.0696875 0.0672108 0.0909797 0.0652075 0.0635848 0.063191 0.0717614 0.0609353 0.0609263
threshold=0.40734265744686132 0.24980208277702334 0.57985880970954906 0.15255970507860186 0.33127722144126898 0.69504550099372875 0.5117759406566621 0.25349649786949163 0.091469850391149535 0.12762237340211871 0.43953686952590948 0.32217311859130865 0.51942870020866405 0.48400184512138372 0.33576329052448278 0.361624225974083 0.67155957221984874 0.45273122191429144 0.39150944352149969 0.29486079514026647 0.25936798751354223 0.14780973643064502 0.8109579086303712 0.70520517230033886 0.3039648979902268 0.27210053801536566 0.46163742244243627 0.55221664905548107 0.19352816790342334 0.62537935376167308
decision_type=2 2 2 2 2 2 2 2 2 2 2 2 2 2 2 2 2 2 2 2 2 2 2 2 2 2 2 2 2 2
left_child=1 3 6 8 11 16 13 21 -1 -10 14 19 -8 17 -6 -16 29 18 -2 20 -3 -5 23 -7 -13 -21 -15 -28 -23 -4
right_child=2 4 5 7 10 22 12 -9 9 -11 -12 24 -14 26 15 -17 -18 -19 -20 25 -22 28 -24 -25 -26 -27 27 -29 -30 -31
leaf_value=-0.0048087730719165245 0.0031102702149830297 -0.00018900443215098378 0.0046030769854975449 -0.0011241791298356833 0.0014204180074732734 0.0080326587500932963 0.0046684730297544266 -0.0030929987459468638 -0.0024710854825986325 -0.0040721204323758801 -0.0021769386033033576 -0.0027102475215529443 0.0028572419601584002 7.2248820614479299e-05 -0.00049588104790166863 0.00068612372286978634 0.0036067936882222939 0.0029713775018083682 0.0013879784497063301 0.0012361375152817255 -0.0012450645667302447 -0.0027443705916982719 0.0094760000206453292 0.005699367979018417 -0.0011652886349582303 -0.0003120641272212197 0.0018895025396672143 -0.0020717190521560153 -0.001720290332116543 0.0059175243328406122
leaf_weight=1152 375 953 793 867 988 285 516 1507 865 1454 185 413 1205 407 1066 1793 457 990 1159 318 1898 1041 97 404 807 1600 686 49 1315 635
leaf_count=1152 375 953 793 867 988 285 516 1507 865 1454 185 413 1205 407 1066 1793 457 990 1159 318 1898 1041 97 404 807 1600 686 49 1315 635
internal_value=0 -0.00150147 0.00339537 -0.00296951 -0.000300063 0.00545384 0.00237473 -0.00227376 -0.00391762 -0.00347493 0.000422185 -0.000786306 0.0034003 0.00189328 0.000547175 0.000245404 0.00480434 0.00226493 0.00180901 -0.00055556 -0.000892057 -0.0018907 0.00701148 0.00666452 -0.0016883 -5.53758e-05 0.00107188 0.00162542 -0.00217278 0.00518758
internal_weight=0 18222 8058 8201 10021 2671 5387 4730 3471 2319 4032 5989 1721 3666 3847 2859 1885 2524 1534 4769 2851 3223 786 689 1220 1918 1142 735 2356 1428
internal_count=26280 18222 8058 8201 10021 2671 5387 4730 3471 2319 4032 5989 1721 3666 3847 2859 1885 2524 1534 4769 2851 3223 786 689 1220 1918 1142 735 2356 1428
is_linear=0
shrinkage=0.1


Tree=18
num_leaves=31
num_cat=0
split_feature=2 2 2 2 2 2 2 1 0 1 1 0 2 1 1 2 0 2 2 0 2 1 2 1 1 2 1 2 0 2
split_gain=10.8781 2.21974 1.81444 0.347062 0.329414 0.294126 0.176575 0.134565 0.12786 0.118706 0.114693 0.0989168 0.0993445 0.0908397 0.0903711 0.087391 0.0955875 0.0833787 0.083195 0.081626 0.0801126 0.0787298 0.0640816 0.0619895 0.0612689 0.0592422 0.0761716 0.0578424 0.0798096 0.0531107
threshold=0.38128381967544561 0.21463913470506671 0.53710910677909862 0.66281831264495861 0.29116638004779821 0.10684126988053323 0.44224172830581671 0.28305184841156011 0.18000396341085437 0.39573162794113165 0.58411401510238659 0.40021771192550665 0.34295421838760382 0.45537009835243231 0.27493733167648321 0.77506926655769359 0.72753661870956432 0.25936798751354223 0.16680960357189181 0.60977700352668773 0.50405725836753856 0.47410607337951666 0.59852883219718944 0.21853146702051165 0.53710910677909862 0.26939569413661962 0.20579891651868823 0.030182082206010822 0.091469850391149535 0.60341075062751781
decision_type=2 2 2 2 2 2 2 2 2 2 2 2 2 2 2 2 2 2 2 2 2 2 2 2 2 2 2 2 2 2
left_child=1 5 6 19 7 27 9 25 -7 -2 13 12 14 -8 -6 16 -5 -9 -10 29 24 -11 -21 -20 -15 26 -3 -1 -29 -4
right_child=2 4 3 15 11 8 10 17 18 21 -12 -13 -14 20 -16 -17 -18 -19 23 22 -22 -23 -24 -25 -26 -27 -28 28 -30 -31
leaf_value=-0.0063689817832607151 0.0018660390420497022 -0.0001374398578181548 0.0038903449462929004 0.0061597878632669335 0.0010305315219540691 -0.0020292632142160471 0.0031067707735092189 -0.0034092181836752125 -0.0038126975979432148 0.00071410767309501588 -0.0030997137502176554 -0.0011695394612280974 0.0007022392587597105 0.0015463416612118714 -0.00044709801909128557 0.0078230373059900906 0.0040242349952617383 -0.0016184078739084529 -0.0020543025750161758 0.001964527782755405 0.0026399724271088244 -0.0017126531063645944 0.0036899261199738031 -0.0033404288419376631 -0.001365739294605983 -0.00019303437590529964 -0.0014649423871073367 -0.0031080215628871213 -0.0045545717370145252 0.0051911511541409142
leaf_weight=106 1032 563 1134 685 477 2286 835 354 932 1476 41 782 1566 1171 3129 195 302 979 862 336 818 147 599 663 77 866 1861 651 921 434
leaf_count=106 1032 563 1134 685 477 2286 835 354 932 1476 41 782 1566 1171 3129 195 302 979 862 336 818 147 599 663 77 866 1861 651 921 434
internal_value=0 -0.00150344 0.00275322 0.00447632 -0.000613063 -0.0029701 0.00161876 -0.0012464 -0.00256754 0.0010275 0.00215233 -0.00012131 3.71811e-05 0.00222656 -0.000251638 0.00588855 0.00550636 -0.00209399 -0.00306835 0.00380941 0.00187081 0.000494309 0.00306989 -0.00261345 0.00136667 -0.00090298 -0.00115662 -0.00410798 -0.00395552 0.00425039
internal_weight=0 16998 9282 3685 10577 6421 5597 4623 4743 2655 2942 5954 5172 2901 3606 1182 987 1333 2457 2503 2066 1623 935 1525 1248 3290 2424 1678 1572 1568
internal_count=26280 16998 9282 3685 10577 6421 5597 4623 4743 2655 2942 5954 5172 2901 3606 1182 987 1333 2457 2503 2066 1623 935 1525 1248 3290 2424 1678 1572 1568
is_linear=0
shrinkage=0.1


Tree=19
num_leaves=31
num_cat=0
split_feature=2 2 2 2 2 2 2 1 1 0 1 1 2 0 2 1 1 0 1 2 2 1 1 2 2 2 2 1 0 1
split_gain=8.84323 2.2101 1.03279 0.404041 0.226795 0.176777 0.175475 0.11825 0.118027 0.104535 0.100984 0.0890722 0.0830148 0.119329 0.0782314 0.0854235 0.0751998 0.0749014 0.0699602 0.0678984 0.0666803 0.0705612 0.0651964 0.0789024 0.0585212 0.0560846 0.0515331 0.0507143 0.0461265 0.0457538
threshold=0.41456656157970434 0.25765272974967962 0.58883097767829906 0.14536877721548083 0.3378084152936936 0.71615648269653331 0.51540440320968639 0.35984298586845404 0.34658266603946691 0.26108326017856603 0.53710910677909862 0.49686634540557867 0.058615913614630706 0.091469850391149535 0.19128512591123584 0.13270220160484317 0.43953686952590948 0.67155957221984874 0.18653516471385959 0.46163742244243627 0.46770682930946356 0.39342261850833898 0.27210053801536566 0.3025794923305512 0.097407311201095595 0.19933369010686877 0.35806174576282507 0.26761445403099066 0.17802480608224872 0.62537935376167308
decision_type=2 2 2 2 2 2 2 2 2 2 2 2 2 2 2 2 2 2 2 2 2 2 2 2 2 2 2 2 2 2
left_child=1 3 6 12 8 17 11 -6 22 14 -8 20 -1 -14 15 -5 26 -4 -16 -13 21 -2 -3 -24 -15 -11 -9 -27 -26 -12
right_child=2 4 5 9 7 -7 10 16 -10 25 29 19 13 24 18 -17 -18 -19 -20 -21 -22 -23 23 -25 28 27 -28 -29 -30 -31
leaf_value=-0.0045681564296959172 0.0029404955328776526 0.00016267651762554431 0.004465695138780099 -0.00045554801298249649 0.0011190924173925074 0.0060361652382804705 0.0037649939105259809 -0.00085960797945421736 -0.0019339420611980901 -0.003441787137122928 0.0023515277786180489 -0.0016884847096044501 -0.0018864464708271385 -0.0042778142709572076 -0.00022297581520462541 -0.0023498008302756611 -0.001746600333756285 0.0030939135242141042 -0.0015046380829955063 0.001046446044525694 0.0026473642704894322 0.0012980653787746004 -0.0010606353172310128 -0.00016915741064967076 -0.0026595729273019681 -0.001437093910006919 0.00039857215503619621 -0.0027576204834004873 -0.003802679918325422 -0.0014859278089716099
leaf_weight=419 313 1449 1314 284 1507 588 717 398 562 461 1069 106 661 584 597 1472 226 571 1486 632 818 1592 2013 1959 922 547 1788 621 572 32
leaf_count=419 313 1449 1314 284 1507 588 717 398 562 461 1069 106 661 584 597 1472 226 571 1486 632 818 1592 2013 1959 922 547 1788 621 572 32
internal_value=0 -0.00118655 0.00283596 -0.00235672 -0.000167171 0.00452237 0.00204595 0.000424155 -0.000554504 -0.0018366 0.00284144 0.00162809 -0.00325728 -0.00305675 -0.00155178 -0.00204344 -1.00367e-05 0.00405016 -0.00113731 0.000653624 0.00189219 0.00156792 -0.000411496 -0.000620956 -0.00342902 -0.00250782 0.000169498 -0.00213919 -0.00309723 0.00223999
internal_weight=0 18528 7752 8626 9902 2473 5279 3919 5983 5468 1818 3461 3158 2739 3839 1756 2412 1885 2083 738 2723 1905 5421 3972 2078 1629 2186 1168 1494 1101
internal_count=26280 18528 7752 8626 9902 2473 5279 3919 5983 5468 1818 3461 3158 2739 3839 1756 2412 1885 2083 738 2723 1905 5421 3972 2078 1629 2186 1168 1494 1101
is_linear=0
shrinkage=0.1


Tree=20
num_leaves=31
num_cat=0
split_feature=2 2 2 2 2 2 2 1 0 1 1 1 2 0 1 1 1 2 2 1 1 2 2 1 2 2 2 0 2 0
split_gain=7.18202 1.60384 1.0671 0.240506 0.212776 0.203428 0.105828 0.0939498 0.0926066 0.0896042 0.0890397 0.0831564 0.0724401 0.0666365 0.0612061 0.0608 0.0582934 0.0601339 0.0566558 0.0582103 0.0564664 0.0732282 0.0534485 0.0636349 0.0534078 0.0497567 0.0465339 0.0742798 0.0462665 0.0715186
threshold=0.39342261850833898 0.23100013285875323 0.54839029908180248 0.11013986170291902 0.68594142794609081 0.3126071989536286 0.46480406820774084 0.48070326447486883 0.15500066429376605 0.3039648979902268 0.55221664905548107 0.40443989634513861 0.18653516471385959 0.60977700352668773 0.40232880413532263 0.25349649786949163 0.46163742244243627 0.52305713295936596 0.16680960357189181 0.11891410499811174 0.31148567795753485 0.361624225974083 0.27744425833225256 0.22506267577409747 0.60341075062751781 0.27210053801536566 0.8109579086303712 0.71615648269653331 0.042419843375682838 0.097407311201095595
decision_type=2 2 2 2 2 2 2 2 2 2 2 2 2 2 2 2 2 2 2 2 2 2 2 2 2 2 2 2 2 2
left_child=1 3 6 28 13 9 7 14 18 22 16 20 -10 -4 -2 -14 -8 -18 19 -5 -7 -22 23 -3 -15 -11 27 -6 -1 -30
right_child=2 5 4 8 26 11 10 -9 12 25 -12 -13 15 24 -16 -17 17 -19 -20 -21 21 -23 -24 -25 -26 -27 -28 -29 29 -31
leaf_value=-0.0047013467253141468 0.0019283426789551896 4.3950366471988929e-05 0.0037361085404376175 -0.0010590374244611156 0.0057848382377011769 0.00096625678529728095 0.0031640452177175136 -0.00078727473407366592 -0.002673699980781753 -0.0026878791478199167 0.00038257118896673924 -0.0011917064903003518 -0.0015114602990343837 0.0016516647589164411 0.00089625247000256611 -0.0029512958200939468 0.0015262718774847524 0.0028710390221388308 -0.00060137243764676299 -0.0025328275166326981 -0.00028081518398868888 0.00067450922172339626 -0.00012257320016740235 -0.0011478781993145885 0.0031543883783186929 -0.0011724285536016251 0.0071424797250524393 0.0038429918524883174 -0.002342950164038619 -0.0037043109969902019
leaf_weight=210 855 599 1379 534 397 880 474 252 1935 267 314 440 1476 340 1752 366 1180 463 626 538 2191 1266 1779 1777 777 1149 97 391 675 901
leaf_count=210 855 599 1379 534 397 880 474 252 1935 267 314 440 1476 340 1752 366 1180 463 626 538 2191 1266 1779 1777 777 1149 97 391 675 901
internal_value=0 -0.00116005 0.00235583 -0.00229937 0.00374346 -0.000360618 0.00146895 0.00105651 -0.00197066 -0.000771189 0.001954 0.000118195 -0.00224641 0.00327108 0.00123474 -0.00179755 0.00218708 0.00190523 -0.00135727 -0.00179868 0.000251088 6.90375e-05 -0.000537066 -0.000847413 0.00269698 -0.00145818 0.00507572 0.00482131 -0.00330703 -0.00312124
internal_weight=0 17609 8671 7261 3381 10348 5290 2859 5475 5571 2431 4777 3777 2496 2607 1842 2117 1643 1698 1072 4337 3457 4155 2376 1117 1416 885 788 1786 1576
internal_count=26280 17609 8671 7261 3381 10348 5290 2859 5475 5571 2431 4777 3777 2496 2607 1842 2117 1643 1698 1072 4337 3457 4155 2376 1117 1416 885 788 1786 1576
is_linear=0
shrinkage=0.1


Tree=21
num_leaves=31
num_cat=0
split_feature=2 2 2 2 2 2 2 1 1 1 1 1 2 2 2 1 0 1 2 1 1 2 2 0 1 1 1 2 2 0
split_gain=5.84479 1.49987 0.656667 0.218219 0.211762 0.128428 0.103296 0.0851948 0.0803346 0.0796905 0.0777078 0.0771273 0.076615 0.072885 0.068204 0.0672453 0.063147 0.0612753 0.0607044 0.0587456 0.0576967 0.0558472 0.0496741 0.0655373 0.0475327 0.0438692 0.0434227 0.0578399 0.039799 0.0414151
threshold=0.41971236467361456 0.23957646638154986 0.60341075062751781 0.13270220160484317 0.32217311859130865 0.5266195833683015 0.7413906753063203 0.3674957156181336 0.54839029908180248 0.17142762988805774 0.57438316941261303 0.31920439004898077 0.19352816790342334 0.35416941344738012 0.36360338330268865 0.42713418602943426 0.67155957221984874 0.26108326017856603 0.17591371387243274 0.43953686952590948 0.10684126988053323 0.48743237555027014 0.06475128605961801 0.10684126988053323 0.51942870020866405 0.46480406820774084 0.25349649786949163 0.27348594367504125 0.27882966399192816 0.17142762988805774
decision_type=2 2 2 2 2 2 2 2 2 2 2 2 2 2 2 2 2 2 2 2 2 2 2 2 2 2 2 2 2 2
left_child=1 3 5 22 11 10 16 14 -7 18 15 26 -11 -9 -6 -2 -4 -14 20 -15 -5 24 -1 -24 -17 -23 28 -28 -3 -30
right_child=2 4 6 9 7 8 -8 13 -10 12 -12 -13 17 19 -16 21 -18 -19 -20 -21 -22 25 23 -25 -26 -27 27 -29 29 -31
leaf_value=-0.0036311618333875958 0.0022767927353090703 -0.00025872536875023023 0.0039664165537652771 0.00060298412858739408 0.0003241925935387095 0.0032536481133169969 0.0052871831545077477 -0.001535247523751033 0.0018954904103503226 -0.0024950125871871219 -0.0031519909263462635 -0.0014059023982338306 -0.0012416510875759373 0.00025660888741980606 0.0014142950079762157 0.0010166681885862992 0.0027459734655711915 -0.0026141650910529966 -0.00019198786775825291 -0.0013405295457508174 -0.0017220783507134229 0.003225735869138303 -0.0017944669580681667 -0.0029582439212496587 -0.0010095521132694558 0.0015033834849033755 -0.0012500605911509323 -0.00036802457708318376 -0.00054455244008360239 0.0019101278643017337
leaf_weight=523 776 913 1092 119 1952 728 391 336 1084 1363 37 1011 1589 1804 813 1569 693 409 533 264 1035 178 753 1354 125 874 1038 2620 105 199
leaf_count=523 776 913 1092 119 1952 728 391 336 1084 1363 37 1011 1589 1804 813 1569 693 409 533 264 1035 178 753 1354 125 874 1038 2620 105 199
internal_value=0 -0.000946576 0.00234957 -0.00202027 -0.000200869 0.00175584 0.00381506 0.000266169 0.00244115 -0.00163546 0.00140693 -0.000611015 -0.00191695 -0.000169227 0.000644718 0.00145482 0.0034926 -0.00152261 -0.00107464 5.27189e-05 -0.00148232 0.00122254 -0.00275886 -0.00254233 0.000867154 0.00179481 -0.000446167 -0.000618313 7.12582e-05 0.00106229
internal_weight=0 18733 7547 7678 11055 5371 2176 5169 1812 5048 3559 5886 3361 2404 2765 3522 1785 1998 1687 2068 1154 2746 2630 2107 1694 1052 4875 3658 1217 304
internal_count=26280 18733 7547 7678 11055 5371 2176 5169 1812 5048 3559 5886 3361 2404 2765 3522 1785 1998 1687 2068 1154 2746 2630 2107 1694 1052 4875 3658 1217 304
is_linear=0
shrinkage=0.1


Tree=22
num_leaves=31
num_cat=0
split_feature=2 2 2 2 2 2 1 0 2 1 1 2 0 1 0 1 1 0 2 2 1 1 2 2 1 1 1 2 2 1
split_gain=4.74153 1.13959 0.61236 0.165747 0.163 0.132497 0.0831922 0.0649127 0.0618666 0.0744264 0.0724347 0.0579612 0.0565775 0.0533314 0.0532084 0.0515078 0.0481492 0.0481004 0.0440048 0.0418079 0.0650697 0.0489259 0.0389236 0.0376792 0.0526026 0.0374395 0.0371441 0.0515238 0.0357374 0.0368898
threshold=0.40734265744686132 0.23100013285875323 0.5613207519054414 0.10374059900641443 0.30528433620929724 0.69504550099372875 0.28971500694751745 0.16166380792856219 0.47410607337951666 0.50079166889190685 0.59852883219718944 0.17367067188024524 0.57438316941261303 0.37521441280841833 0.45537009835243231 0.22268769145011905 0.48400184512138372 0.30911070108413702 0.26629503071308142 0.34493336081504827 0.34875972568988806 0.35416941344738012 0.16680960357189181 0.43729384243488317 0.40443989634513861 0.11891410499811174 0.69504550099372875 0.77506926655769359 0.28179839253425604 0.22064256668090823
decision_type=2 2 2 2 2 2 2 2 2 2 2 2 2 2 2 2 2 2 2 2 2 2 2 2 2 2 2 2 2 2
left_child=1 3 8 -1 6 12 28 22 9 13 16 -9 -4 -2 19 -13 -10 -15 -8 21 -21 -6 25 -19 -25 -5 -7 -28 29 -3
right_child=2 4 5 7 14 26 18 11 10 -11 -12 15 -14 17 -16 -17 -18 23 -20 20 -22 -23 -24 24 -26 -27 27 -29 -30 -31
leaf_value=-0.0027730252444986888 0.0027064603122951923 0.00016988356898818826 0.003427033901549885 -0.00094217644245076773 5.4384078092995537e-05 0.0057865119315257292 -0.0023055655587729592 -0.0023646708963763335 0.0025222034265965387 -0.00103079120756079 -0.0021919413056705108 -0.0011174137051658194 0.0023827631064660248 -0.0023589986576033491 -0.00099407501870283385 -0.0020832646041248864 0.0015029963046985454 0.00060933981194739861 -0.00099483787630194566 0.0011799089479681267 0.00013887529099628791 -0.0012603876786641966 -0.00056437639189012452 0.0034311019799982512 0.0012179016947361464 -0.0020078126253390005 0.003368675340210426 0.0053141479845939289 0.00021298116621040975 -0.00077334891812851905
leaf_weight=1574 198 534 794 651 2393 131 311 1421 630 170 47 1239 1497 42 414 996 1754 998 1452 851 2039 321 712 120 1022 668 462 193 791 1855
leaf_count=1574 198 534 794 651 2393 131 311 1421 630 170 47 1239 1497 42 414 996 1754 998 1452 851 2039 321 712 120 1022 668 462 193 791 1855
internal_value=0 -0.000893227 0.0020199 -0.00186486 -0.000249579 0.00312904 -0.000675078 -0.00161351 0.00133474 0.000990634 0.00169569 -0.00186532 0.00274468 0.00113502 9.99134e-05 -0.00154783 0.00177233 0.000992425 -0.00122606 0.000180733 0.000445422 -0.000101121 -0.00116022 0.0010582 0.00145046 -0.00148186 0.00424935 0.00394192 -0.000369615 -0.000562513
internal_weight=0 18222 8058 7261 10961 3077 4943 5687 4981 2550 2431 3656 2291 2380 6018 2235 2384 2182 1763 5604 2890 2714 2031 2140 1142 1319 786 655 3180 2389
internal_count=26280 18222 8058 7261 10961 3077 4943 5687 4981 2550 2431 3656 2291 2380 6018 2235 2384 2182 1763 5604 2890 2714 2031 2140 1142 1319 786 655 3180 2389
is_linear=0
shrinkage=0.1


Tree=23
num_leaves=31
num_cat=0
split_feature=2 2 2 2 2 2 1 2 1 1 0 1 1 1 1 2 2 1 2 2 1 2 0 0 2 0 1 2 0 1
split_gain=3.85995 0.777096 0.676549 0.148166 0.120025 0.100852 0.074457 0.0680227 0.0677793 0.0653851 0.0650402 0.0624342 0.0522672 0.0466715 0.0457184 0.0549915 0.0439988 0.0433584 0.0422656 0.039289 0.0383388 0.0370091 0.0689596 0.034256 0.0421626 0.0338272 0.0299022 0.0397182 0.029747 0.031032
threshold=0.37732550501823431 0.20777807384729388 0.53710910677909862 0.6559242606163026 0.28971500694751745 0.10040902718901636 0.27619078755378729 0.43175220489501959 0.58411401510238659 0.37521441280841833 0.20177464187145236 0.45273122191429144 0.57985880970954906 0.44718959927558904 0.27210053801536566 0.33266261219978338 0.61561551690101635 0.36360338330268865 0.25936798751354223 0.50405725836753856 0.53024807572364818 0.77506926655769359 0.70520517230033886 0.13560496270656588 0.042419843375682838 0.06475128605961801 0.20579891651868823 0.2642499059438706 0.15255970507860186 0.23337511718273166
decision_type=2 2 2 2 2 2 2 2 2 2 2 2 2 2 2 2 2 2 2 2 2 2 2 2 2 2 2 2 2 2
left_child=1 5 7 12 6 23 26 11 13 14 -7 17 16 -9 -6 -16 -4 -2 -8 20 -15 22 -5 24 -1 -26 -3 -28 -29 -30
right_child=2 4 3 21 9 10 18 8 -10 -11 -12 -13 -14 19 15 -17 -18 -19 -20 -21 -22 -23 -24 -25 25 -27 27 28 29 -31
leaf_value=-0.003590793334047443 0.0015628754996040422 8.0426889854128783e-05 0.0025547552613723518 0.0039827578815480741 0.00098338357038106421 -0.0013030854422928209 -0.0021116498784519407 0.001880492705464728 -0.0028090577714554059 -0.00093275968837974038 -0.0020840845470555054 -0.0010642359673577084 0.0017946777454000572 0.00089823351968082899 -0.00033002715226820243 0.00038172986921434886 0.0050522290058372743 0.00047332423241310803 -0.00098866353669298875 0.0015975920065159925 -0.00089649418232371457 0.0048081555608540591 0.0023661849220853663 -0.00354963557251705 -0.0010540598169152251 -0.0023819476765869021 -0.00092423244879729673 -0.0025421572262016331 0.0015523452701745556 -0.00020004507152961539
leaf_weight=210 460 717 982 636 467 2975 477 935 41 799 1662 221 1345 1410 2812 1768 76 1773 1127 838 130 195 451 271 261 724 1711 46 120 640
leaf_count=210 460 717 982 636 467 2975 477 935 41 799 1662 221 1345 1410 2812 1768 76 1773 1127 838 130 195 451 271 261 724 1711 46 120 640
internal_value=0 -0.000911367 0.00161162 0.00267147 -0.000397139 -0.00181158 -0.000765577 0.000939182 0.00123191 -9.22294e-05 -0.00158301 0.000539091 0.00220831 0.00128192 4.08366e-05 -5.52703e-05 0.00273416 0.000697773 -0.00132262 0.00104657 0.000746731 0.00353961 0.00331204 -0.00253455 -0.00230436 -0.00203009 -0.000489296 -0.000651589 -7.28122e-05 7.66481e-05
internal_weight=0 16787 9493 3685 10684 6103 4838 5808 3354 5846 4637 2454 2403 3313 5047 4580 1058 2233 1604 2378 1540 1282 1087 1466 1195 985 3234 2517 806 760
internal_count=26280 16787 9493 3685 10684 6103 4838 5808 3354 5846 4637 2454 2403 3313 5047 4580 1058 2233 1604 2378 1540 1282 1087 1466 1195 985 3234 2517 806 760
is_linear=0
shrinkage=0.1


Tree=24
num_leaves=31
num_cat=0
split_feature=2 2 2 2 2 2 2 1 1 1 1 0 1 2 1 2 1 2 1 1 2 0 2 0 2 0 2 1 1 2
split_gain=3.13999 0.599049 0.585449 0.106057 0.0857158 0.0839669 0.082897 0.0693451 0.0639135 0.0637453 0.0635038 0.057625 0.0562733 0.0416652 0.0587685 0.0412832 0.0398762 0.0430047 0.0393029 0.0361117 0.0358427 0.0509748 0.0339421 0.0333543 0.0332786 0.0314622 0.0426231 0.0294511 0.0289322 0.0324413
threshold=0.3674957156181336 0.54839029908180248 0.20579891651868823 0.64272990822792064 0.27882966399192816 0.45537009835243231 0.088237233459949507 0.27348594367504125 0.34493336081504827 0.57438316941261303 0.48070326447486883 0.1303931921720505 0.55221664905548107 0.15255970507860186 0.20381976664066317 0.32527378201484686 0.35806174576282507 0.41971236467361456 0.25349649786949163 0.46163742244243627 0.75560760498046886 0.68594142794609081 0.51942870020866405 0.19550732523202899 0.33576329052448278 0.084872674196958556 0.030182082206010822 0.20177464187145236 0.59417471289634716 0.50405725836753856
decision_type=2 2 2 2 2 2 2 2 2 2 2 2 2 2 2 2 2 2 2 2 2 2 2 2 2 2 2 2 2 2
left_child=2 5 6 9 7 10 25 27 15 -3 16 -8 19 -13 -15 18 -2 -18 23 -7 21 -5 -21 -6 -10 26 -1 -4 29 -14
right_child=1 3 4 20 8 12 11 -9 24 -11 -12 13 28 14 -16 -17 17 -19 -20 22 -22 -23 -24 -25 -26 -27 -28 -29 -30 -31
leaf_value=-0.0037747782483262926 0.0014106353196628911 0.0027311731868906088 9.6368626561512929e-05 0.0034436299376066509 1.0521056558535629e-05 0.0020820048152886935 -0.00091726907552824475 -0.0014087028110947165 -0.0013488574965233996 0.0015342256057435206 -0.0013358108066990268 -0.0020959650952403716 -0.002454786609248711 -0.00099669424343642229 -0.0020792531162814602 0.0005045618181703656 0.00019309008385206668 0.00094606426348088635 -0.00027264795209445573 0.00091648092897944969 0.0041015885189678363 0.0021229751338852358 0.0018670007079666659 0.0021062956969306237 -0.00037885468646975807 -0.0030365927733017532 -0.0015220158458100492 -0.00066465316971188763 -0.0027006844397900361 0.00076011908444640122
leaf_weight=103 556 711 654 669 177 628 1360 1159 544 1189 172 1448 36 1341 801 1285 1908 1259 3022 1256 293 519 536 133 1011 489 455 2286 35 245
leaf_count=103 556 711 654 669 177 628 1360 1159 544 1189 172 1448 36 1341 801 1285 1908 1259 3022 1256 293 519 536 133 1011 489 455 2286 35 245
internal_value=0 0.00139334 -0.000857521 0.00247662 -0.000399128 0.000841006 -0.00164261 -0.000753613 -0.000163704 0.00198214 0.000542764 -0.00147161 0.00126559 -0.00168162 -0.00140152 2.30495e-05 0.000629553 0.000492425 -0.000162648 0.00142947 0.00311099 0.00286668 0.00120079 0.000909676 -0.0007182 -0.00245102 -0.00193785 -0.000495365 1.05472e-05 0.000348245
internal_weight=0 10012 16268 3381 10271 6631 5997 4099 6172 1900 3895 4950 2736 3590 2142 4617 3723 3167 3332 2420 1481 1188 1792 310 1555 1047 558 2940 316 281
internal_count=26280 10012 16268 3381 10271 6631 5997 4099 6172 1900 3895 4950 2736 3590 2142 4617 3723 3167 3332 2420 1481 1188 1792 310 1555 1047 558 2940 316 281
is_linear=0
shrinkage=0.1


Tree=25
num_leaves=31
num_cat=0
split_feature=2 2 2 2 2 1 2 1 1 2 1 1 0 1 2 1 0 2 2 1 2 2 1 2 1 2 2 2 1 2
split_gain=2.54624 0.580171 0.380858 0.110334 0.0713442 0.0657385 0.0611318 0.0623005 0.054857 0.0535306 0.0573141 0.0530691 0.0453175 0.0406346 0.0388798 0.0332501 0.0326126 0.0397979 0.0303182 0.0475543 0.0301476 0.0301243 0.0418112 0.0299776 0.0286159 0.028218 0.0271998 0.0259676 0.0259147 0.0253575
threshold=0.39573162794113165 0.24142367392778399 0.57438316941261303 0.14048687368631366 0.71615648269653331 0.19128512591123584 0.31920439004898077 0.32665918767452246 0.30911070108413702 0.48070326447486883 0.49686634540557867 0.41235651075840002 0.64916214346885692 0.62043145298957836 0.18435809761285785 0.40971764922142034 0.7413906753063203 0.8109579086303712 0.070391874760389342 0.088237233459949507 0.52305713295936596 0.18910806626081469 0.12762237340211871 0.11891410499811174 0.51942870020866405 0.29116638004779821 0.34493336081504827 0.63725426793098461 0.25349649786949163 0.43953686952590948
decision_type=2 2 2 2 2 2 2 2 2 2 2 2 2 2 2 2 2 2 2 2 2 2 2 2 2 2 2 2 2 2
left_child=1 3 9 18 12 21 8 -8 -3 11 20 -2 -4 -12 -7 26 -6 -18 -1 23 -11 22 -5 -20 29 -10 -9 -14 -16 -13
right_child=2 6 4 5 16 14 7 15 25 10 13 24 27 -15 28 -17 17 -19 19 -21 -22 -23 -24 -25 -26 -27 -28 -29 -30 -31
leaf_value=-0.0024306480968443447 0.0012677553696144863 -0.00021168871424646766 0.0024657180017449952 0.00027284008532605546 0.0041272595244407342 -0.0021211082799837454 0.00073616145103247172 -0.0004575874134805338 -0.0015824738806653504 0.0016834409834471271 0.0010448277118402462 0.00011318951772085743 0.00073306813878893588 -0.0032796398090960627 -0.00096080271605120896 -0.0009736924349447269 0.0019240973183667803 0.0044734821224461921 -0.0010403168153478451 -0.0018740524990177813 0.0031836736231177516 -6.6904091414794756e-05 -0.0011068919558499489 0.0014263201005763092 -0.0012039995956556163 -0.00062934125069143219 0.00021133468561202051 0.0019283708264321098 -0.0017585221041136363 0.00080995405343849526
leaf_weight=627 1061 4133 1374 264 284 554 1145 891 452 571 1761 972 275 22 1500 402 219 85 410 1852 175 653 1307 56 105 993 1913 536 559 1129
leaf_count=627 1061 4133 1374 264 284 554 1145 891 452 571 1761 972 275 22 1500 402 219 85 410 1852 175 653 1307 56 105 993 1913 536 559 1129
internal_value=0 -0.000684669 0.00141512 -0.00133116 0.00237896 -0.00103735 -0.000177971 0.000102977 -0.000397118 0.000953986 0.0012994 0.000686601 0.00211583 0.000991469 -0.00137746 -0.00012316 0.00335674 0.00263692 -0.00181372 -0.00164685 0.00203537 -0.000637755 -0.000875034 -0.000743897 0.000407089 -0.000927484 -1.22223e-06 0.00152306 -0.00117738 0.000487605
internal_weight=0 17711 8569 7782 2773 4837 9929 4351 5578 5796 2529 3267 2185 1783 2613 3206 588 304 2945 2318 746 2224 1571 466 2206 1445 2804 811 2059 2101
internal_count=26280 17711 8569 7782 2773 4837 9929 4351 5578 5796 2529 3267 2185 1783 2613 3206 588 304 2945 2318 746 2224 1571 466 2206 1445 2804 811 2059 2101
is_linear=0
shrinkage=0.1


Tree=26
num_leaves=31
num_cat=0
split_feature=2 2 2 2 2 1 2 1 2 1 1 0 1 1 2 1 2 1 1 2 2 1 2 1 2 0 2 0 2 1
split_gain=2.07418 0.411409 0.375867 0.0860727 0.0611998 0.0564352 0.0547673 0.0527278 0.0457215 0.0494848 0.0482373 0.0438816 0.0419627 0.036844 0.0344869 0.0311029 0.0463657 0.03095 0.029734 0.0331941 0.0282634 0.0371286 0.026923 0.0343603 0.0268742 0.0263989 0.027175 0.0255754 0.0288039 0.0243607
threshold=0.36360338330268865 0.53371155261993419 0.20177464187145236 0.64272990822792064 0.26761445403099066 0.26108326017856603 0.094570524990558638 0.34295421838760382 0.42475920915603643 0.43953686952590948 0.55221664905548107 0.16918458789587024 0.60977700352668773 0.42713418602943426 0.48743237555027014 0.63725426793098461 0.72753661870956432 0.36360338330268865 0.27210053801536566 0.32824251055717474 0.58883097767829906 0.51942870020866405 0.14299380034208301 0.19728856533765796 0.59417471289634716 0.12491753324866296 0.051424989476799972 0.7413906753063203 0.8109579086303712 0.46480406820774084
decision_type=2 2 2 2 2 2 2 2 2 2 2 2 2 2 2 2 2 2 2 2 2 2 2 2 2 2 2 2 2 2
left_child=2 8 6 12 5 -4 25 18 9 17 13 -8 20 -10 -15 -5 -17 -2 -6 -20 21 -3 -13 -24 -14 26 -1 -18 -29 -16
right_child=1 3 4 15 7 -7 11 -9 10 -11 -12 22 24 14 29 16 27 -19 19 -21 -22 -23 23 -25 -26 -27 -28 28 -30 -31
leaf_value=-0.0024835860875396867 0.0010201317377042959 0.0026549223509001814 -0.00041048703479254077 0.003734122884780706 0.00044217066359104174 -0.0012753949145087415 -0.00086608656028012293 -0.00069150920711640257 0.0016172039267639696 -0.00089421309503818895 -0.00078738584351131498 -0.0020428694559308271 -0.00036914944213255218 0.00048522815202989663 0.002246262810439611 0.0018924141909403551 0.0039509436412399615 0.00025222157614891667 -0.00029663144741840435 0.00037210555438622065 0.002507935810562671 0.0012895703316105961 -0.00082850155018635886 -0.0017212799163080471 0.0012097298888147636 -0.0028615620026680375 -0.0013614366919147425 0.0018150503342743225 0.0040261339044253179 0.0010004947068820095
leaf_weight=313 734 252 2355 189 1093 1110 2168 1515 663 296 168 640 136 1590 188 802 213 1842 3238 963 446 950 846 879 520 248 695 192 85 951
leaf_count=313 734 252 2355 189 1093 1110 2168 1515 663 296 168 640 136 1590 188 802 213 1842 3238 963 446 950 846 879 520 248 695 192 85 951
internal_value=0 0.00111394 -0.000708532 0.00194115 -0.000345424 -0.000687557 -0.00135296 -0.000171317 0.000627159 0.000330321 0.000866631 -0.00119105 0.00155882 0.000948552 0.000786105 0.00253594 0.00236066 0.000471028 -2.24523e-05 -0.000143336 0.00182808 0.00157582 -0.00148894 -0.00128343 0.000882401 -0.00193728 -0.00170988 0.00312707 0.00249354 0.00120612
internal_weight=0 10217 16063 3785 10274 3465 5789 6809 6432 2872 3560 4533 2304 3392 2729 1481 1292 2576 5294 4201 1648 1202 2365 1725 656 1256 1008 490 277 1139
internal_count=26280 10217 16063 3785 10274 3465 5789 6809 6432 2872 3560 4533 2304 3392 2729 1481 1292 2576 5294 4201 1648 1202 2365 1725 656 1256 1008 490 277 1139
is_linear=0
shrinkage=0.1


Tree=27
num_leaves=31
num_cat=0
split_feature=2 2 2 2 2 2 1 1 1 1 2 1 2 1 1 1 2 1 1 1 1 2 2 2 1 2 0 2 0 2
split_gain=1.68528 0.356491 0.280262 0.0617604 0.0604952 0.0496285 0.0510138 0.0490975 0.0489794 0.0362392 0.0361857 0.0402607 0.0337635 0.0516881 0.0398475 0.0346929 0.0301661 0.029288 0.0272082 0.0261071 0.0258077 0.0255071 0.0252424 0.0247336 0.0228568 0.0220751 0.0217173 0.0286732 0.0229173 0.0313035
threshold=0.38346087932586675 0.22268769145011905 0.54839029908180248 0.67838764190673839 0.12247658148407937 0.3025794923305512 0.30772529542446142 0.17142762988805774 0.28971500694751745 0.57438316941261303 0.16680960357189181 0.10374059900641443 0.45537009835243231 0.47410607337951666 0.46770682930946356 0.59417471289634716 0.62537935376167308 0.38524211943149572 0.64916214346885692 0.39150944352149969 0.67155957221984874 0.7413906753063203 0.61561551690101635 0.15500066429376605 0.66281831264495861 0.3378084152936936 0.15500066429376605 0.070391874760389342 0.058615913614630706 0.030182082206010822
decision_type=2 2 2 2 2 2 2 2 2 2 2 2 2 2 2 2 2 2 2 2 2 2 2 2 2 2 2 2 2 2
left_child=1 4 12 9 26 8 25 10 -3 22 11 -6 13 19 -14 -16 24 -8 -18 -2 -5 -22 -4 -9 -11 -7 27 28 29 -1
right_child=2 5 3 20 7 6 17 23 -10 16 -12 -13 14 -15 15 -17 18 -19 -20 -21 21 -23 -24 -25 -26 -27 -28 -29 -30 -31
leaf_value=-0.0027975073630881054 0.0010065306278047501 -0.00022284326057898471 0.0019526785963501906 0.0038082167084212415 0.00056104744720921319 0.00037918891712713062 -4.0865851271508717e-05 -0.0020660759515587108 -0.00088561373743639086 0.00098013535941356969 6.4024928577089917e-05 -0.0010641369488135974 0.0015613929193725234 -0.00097553038345561433 0.00075234377632507783 -0.0024238061891602622 0.0023656440900751939 -0.00076796432047602191 0.0011716193324729561 0.00035396571967914579 0.0017887770286180082 0.0028853277811050279 0.0040479965064497223 -0.0011114989640132972 -0.0022128037538926078 0.0014893740773340479 -0.0022042408587132282 -0.0011232582152742956 -0.0025121428757428964 -0.0005403761884175568
leaf_weight=92 900 3520 658 128 175 927 3294 307 1632 889 627 1182 726 237 1975 35 371 666 393 1923 468 388 63 2343 23 222 441 1146 344 185
leaf_count=92 900 3520 658 128 175 927 3294 307 1632 889 627 1182 726 237 1975 35 371 666 393 1923 468 388 63 2343 23 222 441 1146 344 185
internal_value=0 -0.000586594 0.00109322 0.00181678 -0.0011457 -0.000213786 7.06064e-06 -0.000940442 -0.000432789 0.00154294 -0.000564256 -0.000854552 0.000671147 0.000442926 0.000926395 0.000697038 0.00128792 -0.000163151 0.00175144 0.00056201 0.00248385 0.00228581 0.00213576 -0.00122209 0.000899612 0.000593689 -0.00157647 -0.00141979 -0.00196702 -0.00129004
internal_weight=0 17103 9177 3381 6842 10261 5109 4634 5152 2397 1984 1357 5796 3060 2736 2010 1676 3960 764 2823 984 856 721 2650 912 1149 2208 1767 621 277
internal_count=26280 17103 9177 3381 6842 10261 5109 4634 5152 2397 1984 1357 5796 3060 2736 2010 1676 3960 764 2823 984 856 721 2650 912 1149 2208 1767 621 277
is_linear=0
shrinkage=0.1


Tree=28
num_leaves=31
num_cat=0
split_feature=2 2 2 2 1 2 1 1 2 1 1 0 1 0 1 1 2 1 1 2 2 1 0 2 2 2 0 2 1 1
split_gain=1.37556 0.354058 0.175939 0.0719487 0.056591 0.0371226 0.0531898 0.0401563 0.0346118 0.0490847 0.0388791 0.03317 0.0278418 0.0273513 0.0323851 0.0265496 0.0261491 0.0408037 0.0253348 0.0250953 0.0249321 0.0239835 0.0221584 0.0275678 0.0213872 0.0210535 0.0375604 0.0279603 0.0206735 0.0206242
threshold=0.41456656157970434 0.25567357242107397 0.60977700352668773 0.15717772394418719 0.20177464187145236 0.34123894572258001 0.35205832123756414 0.42713418602943426 0.51540440320968639 0.53710910677909862 0.42713418602943426 0.35984298586845404 0.2642499059438706 0.16918458789587024 0.21021902561187747 0.3378084152936936 0.72753661870956432 0.63725426793098461 0.23100013285875323 0.19352816790342334 0.29486079514026647 0.52305713295936596 0.75560760498046886 0.8109579086303712 0.27348594367504125 0.042419843375682838 0.088237233459949507 0.088237233459949507 0.63118484616279613 0.12247658148407937
decision_type=2 2 2 2 2 2 2 2 2 2 2 2 2 2 2 2 2 2 2 2 2 2 2 2 2 2 2 2 2 2
left_child=1 3 8 25 -5 6 12 15 10 -10 -2 -12 13 14 -3 -7 17 -4 -15 -6 -20 -13 -18 -24 -14 -1 -27 -28 -11 -29
right_child=2 5 16 4 19 7 -8 -9 9 28 11 21 24 18 -16 -17 22 -19 20 -21 -22 -23 23 -25 -26 26 27 29 -30 -31
leaf_value=-0.0022471238923545962 0.0011985666485975319 0.00085699322790408158 0.0024050686648102288 -0.00029447382383820627 -0.0016344243423759043 0.00083592448024369837 -0.001203289532918689 -0.00077660732554554724 0.0017995664355390209 0.0008934991635284285 -0.0031193990833484212 0.00058772508081760726 -0.00078246322465249252 0.0017654592712909409 -0.0013732195335590296 0.00014984820463111645 0.0031667213895795587 0.0013395341464476401 2.4861243611726621e-06 -0.00084509290019165384 0.0013411817876883391 -0.00033716783421643576 0.0010237631642960102 0.0033540908221152384 -0.00015266842563850722 -0.00060087791416586517 -0.0021123769561234313 -0.00080715448789148126 -0.00075972103761159817 -0.0014557467432592371
leaf_weight=210 899 103 550 2080 490 720 499 388 746 1388 26 2215 623 150 177 2604 264 1037 552 2263 186 321 149 77 4009 772 449 721 80 1532
leaf_count=210 899 103 550 2080 490 720 499 388 746 1388 26 2215 623 150 177 2604 264 1037 552 2263 186 321 149 77 4009 772 449 721 80 1532
internal_value=0 -0.000467971 0.00111849 -0.000941906 -0.000688148 -6.47643e-05 -0.00021259 0.000186085 0.000830284 0.00113906 0.000632761 0.000434222 -0.000127355 0.000308957 -0.00055282 0.000298457 0.00190597 0.00170881 0.000580688 -0.000985584 0.000339881 0.000470655 0.00254453 0.00181772 -0.000237375 -0.00127481 -0.00121603 -0.00139179 0.000803405 -0.00124819
internal_weight=0 18528 7752 8517 4833 10011 6299 3712 5675 2214 3461 2562 5800 1168 280 3324 2077 1587 888 2753 738 2536 490 226 4632 3684 3474 2702 1468 2253
internal_count=26280 18528 7752 8517 4833 10011 6299 3712 5675 2214 3461 2562 5800 1168 280 3324 2077 1587 888 2753 738 2536 490 226 4632 3684 3474 2702 1468 2253
is_linear=0
shrinkage=0.1


Tree=29
num_leaves=31
num_cat=0
split_feature=2 2 2 2 2 1 1 2 1 2 1 1 2 1 1 1 2 1 0 0 2 0 1 1 0 2 2 2 1 1
split_gain=1.12166 0.222482 0.203272 0.0545609 0.0351469 0.0465621 0.0371077 0.0316499 0.0415836 0.0331435 0.030404 0.0290246 0.0273341 0.0366361 0.0302909 0.026302 0.0254741 0.02489 0.0342826 0.0240228 0.0283813 0.0232212 0.0225901 0.0217864 0.0215138 0.0210898 0.0206742 0.0197544 0.0400122 0.0213892
threshold=0.36360338330268865 0.5266195833683015 0.19933369010686877 0.66281831264495861 0.2642499059438706 0.25567357242107397 0.37521441280841833 0.11013986170291902 0.15018472075462344 0.16166380792856219 0.57438316941261303 0.51540440320968639 0.44718959927558904 0.46770682930946356 0.44718959927558904 0.27210053801536566 0.3025794923305512 0.36947485804557806 0.30660377442836767 0.70520517230033886 0.77506926655769359 0.21853146702051165 0.3025794923305512 0.10374059900641443 0.13560496270656588 0.058615913614630706 0.33576329052448278 0.57985880970954906 0.60977700352668773 0.62043145298957836
decision_type=2 2 2 2 2 2 2 2 2 2 2 2 2 2 2 2 2 2 2 2 2 2 2 2 2 2 2 2 2 2
left_child=2 10 7 11 5 -4 15 24 9 23 12 -3 13 17 -14 -6 -17 -2 -19 -5 -21 -18 26 -9 25 -1 -23 29 -29 -13
right_child=1 3 4 19 6 -7 -8 8 -10 -11 -12 27 14 -15 -16 16 21 18 -20 20 -22 22 -24 -25 -26 -27 -28 28 -30 -31
leaf_value=-0.0017514191086419211 0.00082592758167310493 0.0020901101042697921 -0.00025768613026005705 0.0024300000774727191 0.0003532059702832976 -0.0010442554196870989 -0.00098870624050602048 0.0001472656535097417 -0.0010990510598577121 0.00056671180725599004 -0.0024122764117310985 0.00079192367789032844 0.0013764172453780311 -0.00089198237717922474 0.00053254962148587502 -0.00044617906671108175 -0.0018521218143481141 -0.0024849770651401387 0.00026913118799423865 0.0010958109945119739 0.0026220871071820835 0.00032872320213287511 -8.0952126331918458e-05 -0.00087525238895757532 -0.0019705275777135247 -0.00089564283500359924 0.0018816415491843285 0.0018778582250789566 0.00082807861144916322 -0.0019630152330701723
leaf_weight=414 917 301 2226 582 1205 1137 470 267 2407 274 37 999 553 243 1843 2001 66 46 2590 430 170 488 2683 949 426 946 104 643 834 29
leaf_count=414 917 301 2226 582 1205 1137 470 267 2407 274 37 999 553 243 1843 2001 66 46 2590 430 170 488 2683 949 426 946 104 643 834 29
internal_value=0 0.000819162 -0.000521035 0.00140236 -0.000257817 -0.000523618 -0.000130428 -0.0010018 -0.00084204 -0.000426856 0.000445779 0.0011623 0.000462857 0.000295934 0.000727315 -6.88129e-05 -0.000164008 0.000377179 0.00022107 0.00197226 0.00152826 4.99044e-06 4.24162e-05 -0.000650736 -0.0013504 -0.00115615 0.000601533 0.00105081 0.00128509 0.000714207
internal_weight=0 10217 16063 3988 10380 3363 7017 5683 3897 1490 6229 2806 6192 3796 2396 6547 5342 3553 2636 1182 600 3341 3275 1216 1786 1360 592 2505 1477 1028
internal_count=26280 10217 16063 3988 10380 3363 7017 5683 3897 1490 6229 2806 6192 3796 2396 6547 5342 3553 2636 1182 600 3341 3275 1216 1786 1360 592 2505 1477 1028
is_linear=0
shrinkage=0.1


Tree=30
num_leaves=31
num_cat=0
split_feature=2 2 2 2 1 2 1 1 2 1 1 1 0 1 0 1 0 1 2 1 0 1 2 0 2 1 1 2 1 2
split_gain=0.914679 0.235743 0.116278 0.0443764 0.040098 0.029101 0.040913 0.0313626 0.0268429 0.0361868 0.0303473 0.0273925 0.0275786 0.0225993 0.021738 0.0213422 0.0343786 0.0353903 0.0209157 0.0221756 0.0208381 0.020289 0.0276757 0.020235 0.0192488 0.0196614 0.0182843 0.0283591 0.0195628 0.0181718
threshold=0.41710647940635687 0.24557989090681079 0.63118484616279613 0.14048687368631366 0.18435809761285785 0.32369045913219457 0.33266261219978338 0.32665918767452246 0.50405725836753856 0.42713418602943426 0.5079496204853059 0.54433304071426403 0.35984298586845404 0.43953686952590948 0.67155957221984874 0.24142367392778399 0.15717772394418719 0.20381976664066317 0.57438316941261303 0.5613207519054414 0.25765272974967962 0.11601134762167932 0.18214803934097293 0.16918458789587024 0.35621453821659094 0.38708932697772985 0.63725426793098461 0.70520517230033886 0.70520517230033886 0.17591371387243274
decision_type=2 2 2 2 2 2 2 2 2 2 2 2 2 2 2 2 2 2 2 2 2 2 2 2 2 2 2 2 2 2
left_child=1 3 8 -1 21 6 15 -7 9 -2 -10 12 -11 20 18 16 17 -3 -12 -20 -9 -5 -23 -17 25 -22 -4 -28 -29 -6
right_child=2 5 26 4 29 7 -8 13 10 11 14 -13 -14 -15 -16 23 -18 -19 19 -21 24 22 -24 -25 -26 -27 27 28 -30 -31
leaf_value=-0.0010969917394030543 0.0010714446985431549 0.00059725632449593089 0.0023750217764818573 0.00089084243554680151 -0.0014115007300439396 0.00061623353009719508 -0.0010163606453961699 -0.0027775157189283235 0.0016541434340336663 -0.0031685601411895318 0.00060393800993691364 -0.0018666994954018219 0.00039008515491359701 -0.00095153324065395592 -0.00046594388275771607 -0.0028051834957053268 0.00086361321587817791 -0.0017824097978958774 0.0021958543353692772 0.000979208025500948 -0.00010399109847117879 -0.00064570891934250798 0.00015945162706456733 -0.00019910153525876193 0.00022761918203173271 -0.0012959330081604452 0.0010602907865708011 0.0031295503799421047 0.0017181600248907952 -0.00073177856010906133
leaf_weight=2945 828 126 292 143 463 973 585 26 484 22 1343 57 2151 243 131 30 479 124 186 770 1115 1147 680 4335 2444 158 706 119 562 2613
leaf_count=2945 828 126 292 143 463 973 585 26 484 22 1343 57 2151 243 131 30 479 124 186 770 1115 1147 680 4335 2444 158 706 119 562 2613
internal_value=0 -0.000378082 0.000920571 -0.000788526 -0.000608496 -6.97663e-05 -0.000224322 0.000107229 0.000713864 0.000506906 0.000931048 0.000297293 0.000354057 -1.70206e-05 0.000787024 -0.000133364 0.000367498 -0.000583058 0.00085842 0.00121592 4.3649e-05 -0.000256249 -0.000346032 -0.000217013 6.33828e-05 -0.00025193 0.0016558 0.00150439 0.00196479 -0.00083409
internal_weight=0 18629 7651 7991 5046 10638 5679 4959 5972 3058 2914 2230 2173 3986 2430 5094 729 250 2299 956 3743 1970 1827 4365 3717 1273 1679 1387 681 3076
internal_count=26280 18629 7651 7991 5046 10638 5679 4959 5972 3058 2914 2230 2173 3986 2430 5094 729 250 2299 956 3743 1970 1827 4365 3717 1273 1679 1387 681 3076
is_linear=0
shrinkage=0.1


Tree=31
num_leaves=31
num_cat=0
split_feature=2 2 2 2 1 2 1 1 0 0 1 0 2 0 2 1 0 1 2 0 2 1 2 1 1 0 1 2 1 1
split_gain=0.74318 0.170013 0.114121 0.0430143 0.0387224 0.0239836 0.0318708 0.0265139 0.0296201 0.0247458 0.0229732 0.0227578 0.0245854 0.0220915 0.0214624 0.0356699 0.0219721 0.0187172 0.0239664 0.02175 0.0263872 0.0184915 0.0242956 0.0251123 0.0237598 0.0204666 0.0183295 0.0177229 0.0174413 0.0168096
threshold=0.39573162794113165 0.26108326017856603 0.60341075062751781 0.15255970507860186 0.20579891651868823 0.46770682930946356 0.39797466993331915 0.43175220489501959 0.3657804429531098 0.63118484616279613 0.50079166889190685 0.20579891651868823 0.23100013285875323 0.33424594998359686 0.19550732523202899 0.23957646638154986 0.24366671591997149 0.57985880970954906 0.67155957221984874 0.72753661870956432 0.77506926655769359 0.27210053801536566 0.34493336081504827 0.35806174576282507 0.34493336081504827 0.17142762988805774 0.23100013285875323 0.29241985082626348 0.22506267577409747 0.12762237340211871
decision_type=2 2 2 2 2 2 2 2 2 2 2 2 2 2 2 2 2 2 2 2 2 2 2 2 2 2 2 2 2 2
left_child=1 3 5 -1 29 6 -2 -7 -9 -10 13 12 -6 -8 -13 -16 -17 -4 -19 -20 -21 25 23 -23 -24 28 -27 -28 -3 -5
right_child=2 21 17 4 11 7 10 8 9 -11 -12 14 -14 -15 15 16 -18 18 19 20 -22 22 24 -25 -26 26 27 -29 -30 -31
leaf_value=-0.00095471177331495939 0.00091812935517459585 0.00022230049134553781 0.00255834549293644 0.00078257186533337757 -0.003000318765506646 0.0020359148739796207 -0.0026140972282047625 -0.003075451031327248 0.00076934264024073901 -0.00025718629621846996 -0.001149263802185734 -0.0012568134177061248 -0.00095513103376316979 0.00026563072650219623 7.3862513719058305e-05 -0.0026302845945807233 -0.00072108680373030715 0.0009537434043902079 0.0020185316745327184 0.00054142842006616235 0.0021369648763171676 -0.0001810786427533807 0.00061201868787318548 -0.00095824521398722164 -6.0453404825643194e-05 0.001742890995856393 3.0586823470579474e-05 0.00092176841345760702 -0.0014797422727464106 -0.00028043159383812894
leaf_weight=3471 708 133 129 159 88 148 27 21 3112 254 129 493 177 1994 679 63 1396 964 631 291 161 4415 720 459 1944 102 653 339 110 2310
leaf_count=3471 708 133 129 159 88 148 27 21 3112 254 129 493 177 1994 679 63 1396 964 631 291 161 4415 720 459 1944 102 653 339 110 2310
internal_value=0 -0.000369895 0.000764524 -0.000680405 -0.000502937 0.000551614 0.000336203 0.000725771 0.000668522 0.00069188 0.000144573 -0.000750997 -0.00163429 0.000227158 -0.00066203 -0.00052488 -0.000803526 0.00139004 0.00131642 0.00163924 0.00110975 -6.07485e-05 -0.000121539 -0.000254267 0.000121296 0.000281991 0.000466387 0.000335134 -0.000548172 -0.000211976
internal_weight=0 17711 8569 8836 5365 6393 2858 3535 3387 3366 2150 2896 265 2021 2631 2138 1459 2176 2047 1083 452 8875 7538 4874 2664 1337 1094 992 243 2469
internal_count=26280 17711 8569 8836 5365 6393 2858 3535 3387 3366 2150 2896 265 2021 2631 2138 1459 2176 2047 1083 452 8875 7538 4874 2664 1337 1094 992 243 2469
is_linear=0
shrinkage=0.1


Tree=32
num_leaves=31
num_cat=0
split_feature=2 2 2 2 1 2 1 1 0 2 2 1 1 1 1 2 1 0 1 2 1 0 2 0 1 1 2 0 2 0
split_gain=0.607042 0.160505 0.0752633 0.0284366 0.0335595 0.0256098 0.0241268 0.0223638 0.0202421 0.02375 0.0185575 0.0308666 0.0286422 0.017283 0.0172802 0.0198778 0.0169891 0.0389264 0.016911 0.0318496 0.0212241 0.0191306 0.016649 0.0172758 0.0193119 0.0163366 0.0245485 0.016321 0.0185357 0.016313
threshold=0.41971236467361456 0.22268769145011905 0.63118484616279613 0.30660377442836767 0.28832960128784185 0.094570524990558638 0.31148567795753485 0.094570524990558638 0.081442143768072142 0.030182082206010822 0.52305713295936596 0.54839029908180248 0.49402955174446112 0.6559242606163026 0.43953686952590948 0.36947485804557806 0.38128381967544561 0.31029818952083593 0.22704182565212253 0.16680960357189181 0.16166380792856219 0.15717772394418719 0.25936798751354223 0.28701016306877142 0.32217311859130865 0.64916214346885692 0.72753661870956432 0.75560760498046886 0.8109579086303712 0.30911070108413702
decision_type=2 2 2 2 2 2 2 2 2 2 2 2 2 2 2 2 2 2 2 2 2 2 2 2 2 2 2 2 2 2
left_child=1 5 10 4 -3 8 -5 -7 9 -1 12 -12 16 -13 15 -8 -2 -18 19 -9 -21 -22 29 -24 -25 -4 -27 -28 -29 -6
right_child=2 3 25 6 22 7 14 18 -10 -11 11 13 -14 -15 -16 -17 17 -19 -20 20 21 -23 23 24 -26 26 27 28 -30 -31
leaf_value=-0.0020241491171122798 0.001664263488842838 -6.6254465064734613e-05 0.0019118343576129512 0.00047097698605809955 -0.0037423673383891586 0.00025741758987495966 -0.00015758920768022371 -0.00080996455897716928 -0.0014596285911803739 -0.00034355949763616341 0.0012996436997154224 0.0006078691595834616 -2.6443040213956657e-05 -0.0011655006647312181 -0.00080933027328451668 0.00024767877440732395 -0.0029675517651823261 0.00059954670344885533 -0.0010960765497528455 0.00032512662338030594 -0.0015859784212245683 -0.00034505907069133862 -0.0014572434311735123 -0.00013720228118297863 -0.00092889460761419516 0.00083347208079467328 0.0022709575780040965 0.00046013633201200354 0.0023709605156153734 -0.0010622546315913028
leaf_weight=103 146 3519 393 1167 25 289 2916 2552 695 458 820 1533 954 57 271 2069 31 2327 721 452 136 1436 159 1087 430 798 262 149 77 248
leaf_count=103 146 3519 393 1167 25 289 2916 2552 695 458 820 1533 954 57 271 2069 31 2327 721 452 136 1436 159 1087 430 798 262 149 77 248
internal_value=0 -0.000305056 0.000757204 -8.30203e-05 -0.000250624 -0.000690942 5.96635e-05 -0.000599203 -0.00109895 -0.000652117 0.000588283 0.000801302 0.000439823 0.000544296 -3.16612e-05 1.06153e-05 0.000617465 0.000552651 -0.000645939 -0.000575015 -0.000278775 -0.000452416 -0.000583511 -0.000465552 -0.000361611 0.00134757 0.00117514 0.00173384 0.00111117 -0.00130769
internal_weight=0 18733 7547 11891 5468 6842 6423 5586 1256 561 5868 2410 3458 1590 5256 4985 2504 2358 5297 4576 2024 1572 1949 1676 1517 1679 1286 488 226 273
internal_count=26280 18733 7547 11891 5468 6842 6423 5586 1256 561 5868 2410 3458 1590 5256 4985 2504 2358 5297 4576 2024 1572 1949 1676 1517 1679 1286 488 226 273
is_linear=0
shrinkage=0.1


Tree=33
num_leaves=31
num_cat=0
split_feature=2 2 2 1 2 1 2 1 1 2 2 1 2 0 2 1 0 0 1 2 1 2 1 2 1 0 1 0 1 0
split_gain=0.491748 0.134161 0.0605518 0.0235587 0.0233379 0.0270949 0.0216056 0.0295883 0.0186157 0.0218942 0.0198895 0.018587 0.0186354 0.0183889 0.0163686 0.0159339 0.0212505 0.0202377 0.0153197 0.0235111 0.0222421 0.0176305 0.0144256 0.0246219 0.0264948 0.0201991 0.0205147 0.0145153 0.0325603 0.0142965
